
/* Species #1 : (Size 19) (AF 0) (Age 1)  */


/* Organism #3204 Fitness: 213 Error: 0 */
genomestart 3204
trait 1 0.1 0 0.0255697 0 0 0 0 0 
trait 2 0.2 0 0 0 0 0 0 0 
trait 3 0.234547 0 0 0 0.20815 0 0.155049 0 
node 1 3 1 1
node 2 3 1 1
node 3 3 1 1
node 4 2 1 1
node 5 1 1 1
node 6 3 1 1
node 7 1 1 3
node 8 3 0 2
gene 1 1 8 -2.3841 0 1 -2.3841 1
gene 1 2 8 1.48772 0 2 1.48772 1
gene 1 3 8 -3.33596 0 3 -3.33596 1
gene 2 4 8 -2.84712 0 4 -2.84712 1
gene 3 5 8 4.04984 0 5 4.04984 1
gene 1 6 8 2.11046 0 6 2.11046 1
gene 1 7 8 -0.0267318 0 7 -0.0267318 1
genomeend 3204

/* Organism #3814 Fitness: 213 Error: 0 */
genomestart 3814
trait 1 0.1 0 0.0255697 0 0 0 0 0 
trait 2 0.2 0 0 0 0 0 0 0 
trait 3 0.234547 0 0 0 0.20815 0 0.155049 0 
node 1 3 1 1
node 2 3 1 1
node 3 3 1 1
node 4 2 1 1
node 5 1 1 1
node 6 3 1 1
node 7 1 1 3
node 8 3 0 2
gene 1 1 8 -2.3841 0 1 -2.3841 1
gene 2 2 8 1.48772 0 2 1.48772 1
gene 1 3 8 -3.33596 0 3 -3.33596 1
gene 2 4 8 -2.84712 0 4 -2.84712 1
gene 3 5 8 4.04984 0 5 4.04984 1
gene 1 6 8 2.11046 0 6 2.11046 1
gene 1 7 8 -0.0267318 0 7 -0.0267318 1
genomeend 3814

/* Organism #3722 Fitness: 213 Error: 0 */
genomestart 3722
trait 1 0.1 0 0.0255697 0 0 0 0 0 
trait 2 0.2 0 0 0 0 0 0 0 
trait 3 0.234547 0 0 0 0.20815 0 0.155049 0 
node 1 3 1 1
node 2 3 1 1
node 3 3 1 1
node 4 2 1 1
node 5 1 1 1
node 6 3 1 1
node 7 1 1 3
node 8 3 0 2
gene 1 1 8 -2.3841 0 1 -2.3841 1
gene 1 2 8 1.48772 0 2 1.48772 1
gene 1 3 8 -3.33596 0 3 -3.33596 1
gene 2 4 8 -2.84712 0 4 -2.84712 1
gene 3 5 8 4.04984 0 5 4.04984 1
gene 1 6 8 2.11046 0 6 2.11046 1
gene 1 7 8 -0.0267318 0 7 -0.0267318 1
genomeend 3722

/* Organism #3832 Fitness: 213 Error: 0 */
genomestart 3832
trait 1 0.1 0 0.0255697 0 0 0 0 0 
trait 2 0.2 0 0 0 0 0 0 0 
trait 3 0.234547 0 0 0 0.20815 0 0.155049 0 
node 1 3 1 1
node 2 3 1 1
node 3 3 1 1
node 4 2 1 1
node 5 1 1 1
node 6 3 1 1
node 7 1 1 3
node 8 3 0 2
gene 1 1 8 -2.3841 0 1 -2.3841 1
gene 2 2 8 1.48772 0 2 1.48772 1
gene 1 3 8 -3.33596 0 3 -3.33596 1
gene 2 4 8 -2.84712 0 4 -2.84712 1
gene 3 5 8 4.04984 0 5 4.04984 1
gene 1 6 8 2.11046 0 6 2.11046 1
gene 1 7 8 -0.0267318 0 7 -0.0267318 1
genomeend 3832

/* Organism #3411 Fitness: 200 Error: 0 */
genomestart 3411
trait 1 0.1 0 0.0284108 0 0 0 0 0 
trait 2 0.2 0 0 0 0 0 0 0 
trait 3 0.233784 0 0 0 0.210574 0 0.156854 0 
node 1 3 1 1
node 2 3 1 1
node 3 3 1 1
node 4 2 1 1
node 5 1 1 1
node 6 3 1 1
node 7 1 1 3
node 8 3 0 2
gene 1 1 8 -3.67574 0 1 -3.67574 1
gene 1 2 8 2.39075 0 2 2.39075 1
gene 1 3 8 -2.87291 0 3 -2.87291 1
gene 2 4 8 -2.84712 0 4 -2.84712 1
gene 3 5 8 1.74305 0 5 1.74305 1
gene 3 6 8 0.892422 0 6 0.892422 1
gene 1 7 8 -0.418145 0 7 -0.418145 1
genomeend 3411

/* Organism #3824 Fitness: 200 Error: 0 */
genomestart 3824
trait 1 0.1 0 0.0284108 0 0 0 0 0 
trait 2 0.2 0 0 0 0 0 0 0 
trait 3 0.233784 0 0 0 0.210574 0 0.156854 0 
node 1 3 1 1
node 2 3 1 1
node 3 3 1 1
node 4 2 1 1
node 5 1 1 1
node 6 3 1 1
node 7 1 1 3
node 8 3 0 2
gene 1 1 8 -3.67574 0 1 -3.67574 1
gene 1 2 8 2.39075 0 2 2.39075 1
gene 1 3 8 -2.87291 0 3 -2.87291 1
gene 2 4 8 -2.84712 0 4 -2.84712 1
gene 3 5 8 1.74305 0 5 1.74305 1
gene 3 6 8 0.892422 0 6 0.892422 1
gene 1 7 8 -0.418145 0 7 -0.418145 1
genomeend 3824

/* Organism #3473 Fitness: 200 Error: 0 */
genomestart 3473
trait 1 0.1 0 0.0284108 0 0 0 0 0 
trait 2 0.2 0 0 0 0 0 0 0 
trait 3 0.233784 0 0 0 0.210574 0 0.156854 0 
node 1 3 1 1
node 2 3 1 1
node 3 3 1 1
node 4 2 1 1
node 5 1 1 1
node 6 3 1 1
node 7 1 1 3
node 8 3 0 2
gene 1 1 8 -3.67574 0 1 -3.67574 1
gene 1 2 8 2.39075 0 2 2.39075 1
gene 1 3 8 -2.87291 0 3 -2.87291 1
gene 2 4 8 -2.84712 0 4 -2.84712 1
gene 3 5 8 1.74305 0 5 1.74305 1
gene 3 6 8 0.892422 0 6 0.892422 1
gene 1 7 8 -0.418145 0 7 -0.418145 1
genomeend 3473

/* Organism #3642 Fitness: 200 Error: 0 */
genomestart 3642
trait 1 0.1 0 0.0284108 0 0 0 0 0 
trait 2 0.2 0 0 0 0 0 0 0 
trait 3 0.233784 0 0 0 0.210574 0 0.156854 0 
node 1 3 1 1
node 2 3 1 1
node 3 3 1 1
node 4 2 1 1
node 5 1 1 1
node 6 3 1 1
node 7 1 1 3
node 8 3 0 2
gene 1 1 8 -3.67574 0 1 -3.67574 1
gene 1 2 8 2.39075 0 2 2.39075 1
gene 1 3 8 -2.87291 0 3 -2.87291 1
gene 2 4 8 -2.84712 0 4 -2.84712 1
gene 3 5 8 1.74305 0 5 1.74305 1
gene 3 6 8 0.892422 0 6 0.892422 1
gene 1 7 8 -0.418145 0 7 -0.418145 1
genomeend 3642

/* Organism #3616 Fitness: 200 Error: 0 */
genomestart 3616
trait 1 0.1 0 0.0284108 0 0 0 0 0 
trait 2 0.2 0 0 0 0 0 0 0 
trait 3 0.233784 0 0 0 0.210574 0 0.156854 0 
node 1 3 1 1
node 2 3 1 1
node 3 3 1 1
node 4 2 1 1
node 5 1 1 1
node 6 3 1 1
node 7 1 1 3
node 8 3 0 2
gene 1 1 8 -3.67574 0 1 -3.67574 1
gene 1 2 8 2.39075 0 2 2.39075 1
gene 1 3 8 -2.87291 0 3 -2.87291 1
gene 2 4 8 -2.84712 0 4 -2.84712 1
gene 3 5 8 1.74305 0 5 1.74305 1
gene 3 6 8 0.892422 0 6 0.892422 1
gene 1 7 8 -0.418145 0 7 -0.418145 1
genomeend 3616

/* Organism #3850 Fitness: 200 Error: 0 */
genomestart 3850
trait 1 0.1 0 0.0284108 0 0 0 0 0 
trait 2 0.2 0 0 0 0 0 0 0 
trait 3 0.233784 0 0 0 0.210574 0 0.156854 0 
node 1 3 1 1
node 2 3 1 1
node 3 3 1 1
node 4 2 1 1
node 5 1 1 1
node 6 3 1 1
node 7 1 1 3
node 8 3 0 2
gene 1 1 8 -3.67574 0 1 -3.67574 1
gene 1 2 8 2.39075 0 2 2.39075 1
gene 1 3 8 -2.87291 0 3 -2.87291 1
gene 2 4 8 -2.84712 0 4 -2.84712 1
gene 3 5 8 1.74305 0 5 1.74305 1
gene 3 6 8 0.892422 0 6 0.892422 1
gene 1 7 8 -0.418145 0 7 -0.418145 1
genomeend 3850

/* Organism #3325 Fitness: 200 Error: 0 */
genomestart 3325
trait 1 0.1 0 0.0284108 0 0 0 0 0 
trait 2 0.2 0 0 0 0 0 0 0 
trait 3 0.233784 0 0 0 0.210574 0 0.156854 0 
node 1 3 1 1
node 2 3 1 1
node 3 3 1 1
node 4 2 1 1
node 5 1 1 1
node 6 3 1 1
node 7 1 1 3
node 8 3 0 2
gene 1 1 8 -3.67574 0 1 -3.67574 1
gene 1 2 8 2.39075 0 2 2.39075 1
gene 1 3 8 -2.87291 0 3 -2.87291 1
gene 2 4 8 -2.84712 0 4 -2.84712 1
gene 3 5 8 1.74305 0 5 1.74305 1
gene 3 6 8 0.892422 0 6 0.892422 1
gene 1 7 8 -0.418145 0 7 -0.418145 1
genomeend 3325

/* Organism #3042 Fitness: 200 Error: 0 */
genomestart 3042
trait 1 0.1 0 0.0284108 0 0 0 0 0 
trait 2 0.2 0 0 0 0 0 0 0 
trait 3 0.233784 0 0 0 0.210574 0 0.156854 0 
node 1 3 1 1
node 2 3 1 1
node 3 3 1 1
node 4 2 1 1
node 5 1 1 1
node 6 3 1 1
node 7 1 1 3
node 8 3 0 2
gene 1 1 8 -3.67574 0 1 -3.67574 1
gene 1 2 8 2.39075 0 2 2.39075 1
gene 1 3 8 -2.87291 0 3 -2.87291 1
gene 2 4 8 -2.84712 0 4 -2.84712 1
gene 3 5 8 1.74305 0 5 1.74305 1
gene 3 6 8 0.892422 0 6 0.892422 1
gene 1 7 8 -0.418145 0 7 -0.418145 1
genomeend 3042

/* Organism #3781 Fitness: 200 Error: 0 */
genomestart 3781
trait 1 0.1 0 0.0284108 0 0 0 0 0 
trait 2 0.2 0 0 0 0 0 0 0 
trait 3 0.233784 0 0 0 0.210574 0 0.156854 0 
node 1 3 1 1
node 2 3 1 1
node 3 3 1 1
node 4 2 1 1
node 5 1 1 1
node 6 3 1 1
node 7 1 1 3
node 8 3 0 2
gene 1 1 8 -3.67574 0 1 -3.67574 1
gene 1 2 8 2.39075 0 2 2.39075 1
gene 1 3 8 -2.87291 0 3 -2.87291 1
gene 2 4 8 -2.84712 0 4 -2.84712 1
gene 3 5 8 1.74305 0 5 1.74305 1
gene 3 6 8 0.892422 0 6 0.892422 1
gene 1 7 8 -0.418145 0 7 -0.418145 1
genomeend 3781

/* Organism #3279 Fitness: 199 Error: 0 */
genomestart 3279
trait 1 0.1 0 0.0255697 0 0 0 0 0 
trait 2 0.2 0 0 0 0 0 0 0 
trait 3 0.234547 0 0 0 0.20815 0 0.155049 0 
node 1 3 1 1
node 2 3 1 1
node 3 3 1 1
node 4 2 1 1
node 5 1 1 1
node 6 3 1 1
node 7 1 1 3
node 8 3 0 2
gene 1 1 8 -3.69129 0 1 -3.69129 1
gene 1 2 8 2.41014 0 2 2.41014 1
gene 1 3 8 -2.87291 0 3 -2.87291 1
gene 2 4 8 -2.84712 0 4 -2.84712 1
gene 3 5 8 1.72837 0 5 1.72837 1
gene 1 6 8 0.893533 0 6 0.893533 1
gene 1 7 8 -0.421641 0 7 -0.421641 1
genomeend 3279

/* Organism #3442 Fitness: 199 Error: 0 */
genomestart 3442
trait 1 0.1 0 0.0284108 0 0 0 0 0 
trait 2 0.2 0 0 0 0 0 0 0 
trait 3 0.233784 0 0 0 0.210574 0 0.156854 0 
node 1 3 1 1
node 2 3 1 1
node 3 3 1 1
node 4 2 1 1
node 5 1 1 1
node 6 3 1 1
node 7 1 1 3
node 8 3 0 2
gene 1 1 8 -3.67963 0 1 -3.67963 1
gene 1 2 8 2.3956 0 2 2.3956 1
gene 1 3 8 -2.87291 0 3 -2.87291 1
gene 2 4 8 -2.84712 0 4 -2.84712 1
gene 2 5 8 1.73938 0 5 1.73938 1
gene 3 6 8 0.8927 0 6 0.8927 1
gene 1 7 8 -0.419019 0 7 -0.419019 1
genomeend 3442

/* Organism #3407 Fitness: 199 Error: 0 */
genomestart 3407
trait 1 0.1 0 0.0284108 0 0 0 0 0 
trait 2 0.2 0 0 0 0 0 0 0 
trait 3 0.233784 0 0 0 0.210574 0 0.156854 0 
node 1 3 1 1
node 2 3 1 1
node 3 3 1 1
node 4 2 1 1
node 5 1 1 1
node 6 3 1 1
node 7 1 1 3
node 8 3 0 2
gene 1 1 8 -3.68351 0 1 -3.68351 1
gene 1 2 8 2.40045 0 2 2.40045 1
gene 1 3 8 -2.87291 0 3 -2.87291 1
gene 2 4 8 -2.84712 0 4 -2.84712 1
gene 2 5 8 1.73571 0 5 1.73571 1
gene 3 6 8 0.892978 0 6 0.892978 1
gene 1 7 8 -0.419893 0 7 -0.419893 1
genomeend 3407

/* Organism #3342 Fitness: 199 Error: 0 */
genomestart 3342
trait 1 0.1 0 0.0269903 0 0 0 0 0 
trait 2 0.2 0 0 0 0 0 0 0 
trait 3 0.234166 0 0 0 0.209362 0 0.155952 0 
node 1 3 1 1
node 2 3 1 1
node 3 3 1 1
node 4 2 1 1
node 5 1 1 1
node 6 3 1 1
node 7 1 1 3
node 8 3 0 2
gene 1 1 8 -3.68351 0 1 -3.68351 1
gene 1 2 8 2.40045 0 2 2.40045 1
gene 1 3 8 -2.87291 0 3 -2.87291 1
gene 2 4 8 -2.84712 0 4 -2.84712 1
gene 3 5 8 1.73571 0 5 1.73571 1
gene 1 6 8 0.892978 0 6 0.892978 1
gene 1 7 8 -0.419893 0 7 -0.419893 1
genomeend 3342

/* Organism #3364 Fitness: 199 Error: 0 */
genomestart 3364
trait 1 0.1 0 0.0255697 0 0 0 0 0 
trait 2 0.2 0 0 0 0 0 0 0 
trait 3 0.234547 0 0 0 0.20815 0 0.155049 0 
node 1 3 1 1
node 2 3 1 1
node 3 3 1 1
node 4 2 1 1
node 5 1 1 1
node 6 3 1 1
node 7 1 1 3
node 8 3 0 2
gene 1 1 8 -3.69129 0 1 -3.69129 1
gene 1 2 8 2.41014 0 2 2.41014 1
gene 1 3 8 -2.87291 0 3 -2.87291 1
gene 2 4 8 -2.84712 0 4 -2.84712 1
gene 3 5 8 1.72837 0 5 1.72837 1
gene 1 6 8 0.893533 0 6 0.893533 1
gene 1 7 8 -0.421641 0 7 -0.421641 1
genomeend 3364

/* Organism #3453 Fitness: 199 Error: 0 */
genomestart 3453
trait 1 0.1 0 0.0269903 0 0 0 0 0 
trait 2 0.2 0 0 0 0 0 0 0 
trait 3 0.234166 0 0 0 0.209362 0 0.155952 0 
node 1 3 1 1
node 2 3 1 1
node 3 3 1 1
node 4 2 1 1
node 5 1 1 1
node 6 3 1 1
node 7 1 1 3
node 8 3 0 2
gene 1 1 8 -3.68546 0 1 -3.68546 1
gene 1 2 8 2.40287 0 2 2.40287 1
gene 1 3 8 -2.87291 0 3 -2.87291 1
gene 2 4 8 -2.84712 0 4 -2.84712 1
gene 3 5 8 1.73388 0 5 1.73388 1
gene 1 6 8 0.893117 0 6 0.893117 1
gene 1 7 8 -0.42033 0 7 -0.42033 1
genomeend 3453

/* Species #2 : (Size 13) (AF 0) (Age 1)  */


/* Organism #1891 Fitness: 139 Error: 0 */
genomestart 1891
trait 1 0.1 0 0 0 0 0 0 0 
trait 2 0.2 0 0 0 0 0 0 0 
trait 3 0.3 0 0 0 0 0 0 0 
node 1 2 1 1
node 2 3 1 1
node 3 2 1 1
node 4 1 1 1
node 5 3 1 1
node 6 3 1 1
node 7 1 1 3
node 8 2 0 2
node 9 1 0 0
node 10 1 0 0
node 14 1 0 0
node 17 1 0 0
gene 3 1 8 -1.87049 0 1 -1.87049 1
gene 3 2 8 0.944288 0 2 0.944288 1
gene 2 3 8 -1.10739 0 3 -1.10739 1
gene 3 4 8 -0.732597 0 4 -0.732597 1
gene 2 5 8 2.61399 0 5 2.61399 0
gene 3 6 8 2.07619 0 6 2.07619 1
gene 2 7 8 -0.72718 0 7 -0.72718 1
gene 3 4 9 1.97369 0 8 1.97369 0
gene 3 9 8 -0.328974 0 9 -0.328974 1
gene 2 5 10 2.80074 0 10 2.80074 1
gene 2 10 8 1.33808 0 11 1.33808 0
gene 3 4 14 -1.04741 0 27 -1.04741 1
gene 3 14 9 1.80462 0 28 1.80462 1
gene 2 10 17 1 0 41 0 1
gene 2 17 8 1.33808 0 42 0 1
gene 2 10 14 -0.277932 0 46 -0.277932 1
genomeend 1891

/* Organism #2783 Fitness: 139 Error: 0 */
genomestart 2783
trait 1 0.1 0 0 0 0 0 0 0 
trait 2 0.2 0 0 0 0 0 0 0 
trait 3 0.3 0 0 0 0 0.175878 0 0.7781 
node 1 2 1 1
node 2 3 1 1
node 3 2 1 1
node 4 1 1 1
node 5 3 1 1
node 6 3 1 1
node 7 1 1 3
node 8 2 0 2
node 9 1 0 0
node 10 1 0 0
node 14 1 0 0
node 17 1 0 0
gene 3 1 8 -1.87049 0 1 -1.87049 1
gene 3 2 8 0.944288 0 2 0.944288 1
gene 2 3 8 -1.10739 0 3 -1.10739 1
gene 3 4 8 -0.732597 0 4 -0.732597 1
gene 2 5 8 2.61399 0 5 2.61399 0
gene 3 6 8 2.07619 0 6 2.07619 1
gene 2 7 8 -0.72718 0 7 -0.72718 1
gene 3 4 9 1.97369 0 8 1.97369 0
gene 3 9 8 -0.328974 0 9 -0.328974 1
gene 2 5 10 2.80074 0 10 2.80074 1
gene 2 10 8 1.33808 0 11 1.33808 0
gene 3 4 14 -1.04741 0 27 -1.04741 1
gene 3 14 9 1.80462 0 28 1.80462 1
gene 2 10 17 1 0 41 0 1
gene 2 17 8 1.33808 0 42 0 1
gene 2 10 14 -0.277932 0 46 -0.277932 1
genomeend 2783

/* Organism #2097 Fitness: 139 Error: 0 */
genomestart 2097
trait 1 0.1 0 0 0 0 0 0 0 
trait 2 0.2 0 0 0 0 0 0 0 
trait 3 0.3 0 0 0 0 0.175878 0 0.7781 
node 1 2 1 1
node 2 3 1 1
node 3 2 1 1
node 4 1 1 1
node 5 3 1 1
node 6 3 1 1
node 7 1 1 3
node 8 2 0 2
node 9 1 0 0
node 10 1 0 0
node 14 1 0 0
node 17 1 0 0
gene 3 1 8 -1.87049 0 1 -1.87049 1
gene 3 2 8 0.944288 0 2 0.944288 1
gene 2 3 8 -1.10739 0 3 -1.10739 1
gene 3 4 8 -0.732597 0 4 -0.732597 1
gene 2 5 8 2.61399 0 5 2.61399 0
gene 3 6 8 2.07619 0 6 2.07619 1
gene 2 7 8 -0.72718 0 7 -0.72718 1
gene 3 4 9 1.97369 0 8 1.97369 0
gene 3 9 8 -0.328974 0 9 -0.328974 1
gene 2 5 10 2.80074 0 10 2.80074 1
gene 2 10 8 1.33808 0 11 1.33808 0
gene 3 4 14 -1.04741 0 27 -1.04741 1
gene 3 14 9 1.80462 0 28 1.80462 1
gene 2 10 17 1 0 41 0 1
gene 2 17 8 1.33808 0 42 0 1
gene 2 10 14 -0.277932 0 46 -0.277932 1
genomeend 2097

/* Organism #2047 Fitness: 139 Error: 0 */
genomestart 2047
trait 1 0.1 0 0 0 0 0 0 0 
trait 2 0.2 0 0 0 0 0 0 0 
trait 3 0.65 0 0 0 0 0 0 0 
node 1 2 1 1
node 2 3 1 1
node 3 2 1 1
node 4 1 1 1
node 5 3 1 1
node 6 3 1 1
node 7 1 1 3
node 8 2 0 2
node 9 1 0 0
node 10 1 0 0
node 14 1 0 0
node 17 1 0 0
gene 3 1 8 -1.87049 0 1 -1.87049 1
gene 3 2 8 0.944288 0 2 0.944288 1
gene 2 3 8 -1.10739 0 3 -1.10739 1
gene 3 4 8 -0.732597 0 4 -0.732597 1
gene 2 5 8 2.61399 0 5 2.61399 0
gene 3 6 8 2.07619 0 6 2.07619 1
gene 2 7 8 -0.72718 0 7 -0.72718 1
gene 3 4 9 1.97369 0 8 1.97369 0
gene 3 9 8 -0.328974 0 9 -0.328974 1
gene 2 5 10 2.80074 0 10 2.80074 1
gene 2 10 8 1.33808 0 11 1.33808 0
gene 3 4 14 -1.04741 0 27 -1.04741 1
gene 3 14 9 1.80462 0 28 1.80462 1
gene 2 10 17 1 0 41 0 1
gene 2 17 8 1.33808 0 42 0 1
gene 2 10 14 -0.277932 0 46 -0.277932 1
genomeend 2047

/* Organism #2078 Fitness: 139 Error: 0 */
genomestart 2078
trait 1 0.1 0 0 0 0 0 0 0 
trait 2 0.2 0 0 0 0 0 0 0 
trait 3 0.65 0 0 0 0 0 0 0 
node 1 2 1 1
node 2 1 1 1
node 3 2 1 1
node 4 1 1 1
node 5 3 1 1
node 6 3 1 1
node 7 1 1 3
node 8 2 0 2
node 9 1 0 0
node 10 1 0 0
node 14 1 0 0
node 17 1 0 0
gene 3 1 8 -1.87049 0 1 -1.87049 1
gene 3 2 8 0.944288 0 2 0.944288 1
gene 2 3 8 -1.10739 0 3 -1.10739 1
gene 3 4 8 -0.732597 0 4 -0.732597 1
gene 2 5 8 2.61399 0 5 2.61399 0
gene 3 6 8 2.07619 0 6 2.07619 1
gene 2 7 8 -0.72718 0 7 -0.72718 1
gene 3 4 9 1.97369 0 8 1.97369 0
gene 3 9 8 -0.328974 0 9 -0.328974 1
gene 2 5 10 2.80074 0 10 2.80074 1
gene 2 10 8 1.33808 0 11 1.33808 0
gene 3 4 14 -1.04741 0 27 -1.04741 1
gene 3 14 9 1.80462 0 28 1.80462 1
gene 2 10 17 1 0 41 0 1
gene 2 17 8 1.33808 0 42 0 1
gene 2 10 14 -0.277932 0 46 -0.277932 1
genomeend 2078

/* Organism #1872 Fitness: 139 Error: 0 */
genomestart 1872
trait 1 0.1 0 0 0 0 0 0 0 
trait 2 0.2 0 0 0 0 0 0 0 
trait 3 0.3 0 0 0 0 0 0 0 
node 1 2 1 1
node 2 3 1 1
node 3 2 1 1
node 4 1 1 1
node 5 3 1 1
node 6 3 1 1
node 7 1 1 3
node 8 2 0 2
node 9 1 0 0
node 10 1 0 0
node 14 1 0 0
node 17 1 0 0
gene 3 1 8 -1.87049 0 1 -1.87049 1
gene 3 2 8 0.944288 0 2 0.944288 1
gene 2 3 8 -1.10739 0 3 -1.10739 1
gene 3 4 8 -0.732597 0 4 -0.732597 1
gene 2 5 8 2.61399 0 5 2.61399 0
gene 3 6 8 2.07619 0 6 2.07619 1
gene 2 7 8 -0.72718 0 7 -0.72718 1
gene 3 4 9 1.97369 0 8 1.97369 0
gene 3 9 8 -0.328974 0 9 -0.328974 1
gene 2 5 10 2.80074 0 10 2.80074 1
gene 2 10 8 1.33808 0 11 1.33808 0
gene 3 4 14 -1.04741 0 27 -1.04741 1
gene 3 14 9 1.80462 0 28 1.80462 1
gene 2 10 17 1 0 41 0 1
gene 2 17 8 1.33808 0 42 0 1
gene 2 10 14 -0.277932 0 46 -0.277932 1
genomeend 1872

/* Organism #1983 Fitness: 139 Error: 0 */
genomestart 1983
trait 1 0.1 0 0 0 0 0 0 0 
trait 2 0.2 0 0 0 0 0 0 0 
trait 3 1 0 0 0 0 0 0 0 
node 1 2 1 1
node 2 3 1 1
node 3 2 1 1
node 4 1 1 1
node 5 3 1 1
node 6 3 1 1
node 7 1 1 3
node 8 2 0 2
node 9 1 0 0
node 10 1 0 0
node 14 1 0 0
node 17 1 0 0
gene 3 1 8 -1.87049 0 1 -1.87049 1
gene 3 2 8 0.944288 0 2 0.944288 1
gene 2 3 8 -1.10739 0 3 -1.10739 1
gene 3 4 8 -0.732597 0 4 -0.732597 1
gene 2 5 8 2.61399 0 5 2.61399 0
gene 3 6 8 2.07619 0 6 2.07619 1
gene 2 7 8 -0.72718 0 7 -0.72718 1
gene 3 4 9 1.97369 0 8 1.97369 0
gene 3 9 8 -0.328974 0 9 -0.328974 1
gene 2 5 10 2.80074 0 10 2.80074 1
gene 2 10 8 1.33808 0 11 1.33808 0
gene 3 4 14 -1.04741 0 27 -1.04741 1
gene 3 14 9 1.80462 0 28 1.80462 1
gene 2 10 17 1 0 41 0 1
gene 2 17 8 1.33808 0 42 0 1
gene 2 10 14 -0.277932 0 46 -0.277932 1
genomeend 1983

/* Organism #1099 Fitness: 139 Error: 0 */
genomestart 1099
trait 1 0.1 0 0 0 0 0 0 0 
trait 2 0.2 0 0 0 0 0 0 0 
trait 3 0.3 0 0 0 0 0 0 0 
node 1 2 1 1
node 2 3 1 1
node 3 2 1 1
node 4 1 1 1
node 5 3 1 1
node 6 3 1 1
node 7 1 1 3
node 8 2 0 2
node 9 1 0 0
node 10 1 0 0
node 14 1 0 0
node 17 1 0 0
gene 3 1 8 -1.87049 0 1 -1.87049 1
gene 3 2 8 0.944288 0 2 0.944288 1
gene 2 3 8 -1.10739 0 3 -1.10739 1
gene 3 4 8 -0.732597 0 4 -0.732597 1
gene 2 5 8 2.61399 0 5 2.61399 0
gene 3 6 8 2.07619 0 6 2.07619 1
gene 2 7 8 -0.72718 0 7 -0.72718 1
gene 3 4 9 1.97369 0 8 1.97369 0
gene 3 9 8 -0.328974 0 9 -0.328974 1
gene 2 5 10 2.80074 0 10 2.80074 1
gene 2 10 8 1.33808 0 11 1.33808 0
gene 3 4 14 -1.04741 0 27 -1.04741 1
gene 3 14 9 1.80462 0 28 1.80462 1
gene 2 10 17 1 0 41 0 1
gene 2 17 8 1.33808 0 42 0 1
gene 2 10 14 -0.277932 0 46 -0.277932 1
genomeend 1099

/* Organism #1789 Fitness: 139 Error: 0 */
genomestart 1789
trait 1 0.1 0 0 0 0 0 0 0 
trait 2 0.2 0 0 0 0 0 0 0 
trait 3 0.3 0 0 0 0 0 0 0 
node 1 2 1 1
node 2 3 1 1
node 3 2 1 1
node 4 1 1 1
node 5 3 1 1
node 6 3 1 1
node 7 1 1 3
node 8 2 0 2
node 9 1 0 0
node 10 1 0 0
node 14 1 0 0
node 17 1 0 0
gene 3 1 8 -1.87049 0 1 -1.87049 1
gene 3 2 8 0.944288 0 2 0.944288 1
gene 2 3 8 -1.10739 0 3 -1.10739 1
gene 3 4 8 -0.732597 0 4 -0.732597 1
gene 2 5 8 2.61399 0 5 2.61399 0
gene 3 6 8 2.07619 0 6 2.07619 1
gene 2 7 8 -0.72718 0 7 -0.72718 1
gene 3 4 9 1.97369 0 8 1.97369 0
gene 3 9 8 -0.328974 0 9 -0.328974 1
gene 2 5 10 2.80074 0 10 2.80074 1
gene 2 10 8 1.33808 0 11 1.33808 0
gene 3 4 14 -1.04741 0 27 -1.04741 1
gene 3 14 9 1.80462 0 28 1.80462 1
gene 2 10 17 1 0 41 0 1
gene 2 17 8 1.33808 0 42 0 1
gene 2 10 14 -0.277932 0 46 -0.277932 1
genomeend 1789

/* Organism #2674 Fitness: 139 Error: 0 */
genomestart 2674
trait 1 0.1 0 0 0 0 0 0 0 
trait 2 0.2 0 0 0 0 0 0 0 
trait 3 0.65 0 0 0 0 0 0 0 
node 1 2 1 1
node 2 3 1 1
node 3 2 1 1
node 4 1 1 1
node 5 3 1 1
node 6 3 1 1
node 7 1 1 3
node 8 2 0 2
node 9 1 0 0
node 10 1 0 0
node 14 1 0 0
node 17 1 0 0
gene 3 1 8 -1.87049 0 1 -1.87049 1
gene 3 2 8 0.944288 0 2 0.944288 1
gene 2 3 8 -1.10739 0 3 -1.10739 1
gene 3 4 8 -0.732597 0 4 -0.732597 1
gene 2 5 8 2.61399 0 5 2.61399 0
gene 3 6 8 2.07619 0 6 2.07619 1
gene 2 7 8 -0.72718 0 7 -0.72718 1
gene 3 4 9 1.97369 0 8 1.97369 0
gene 3 9 8 -0.328974 0 9 -0.328974 1
gene 2 5 10 2.80074 0 10 2.80074 1
gene 2 10 8 1.33808 0 11 1.33808 0
gene 3 4 14 -1.04741 0 27 -1.04741 1
gene 3 14 9 1.80462 0 28 1.80462 1
gene 2 10 17 1 0 41 0 1
gene 2 17 8 1.33808 0 42 0 1
gene 2 10 14 -0.277932 0 46 -0.277932 1
genomeend 2674

/* Organism #2973 Fitness: 139 Error: 0 */
genomestart 2973
trait 1 0.1 0 0 0 0 0 0 0 
trait 2 0.2 0 0 0 0 0 0 0 
trait 3 0.475 0 0 0 0 0 0 0 
node 1 2 1 1
node 2 3 1 1
node 3 2 1 1
node 4 1 1 1
node 5 3 1 1
node 6 3 1 1
node 7 1 1 3
node 8 2 0 2
node 9 1 0 0
node 10 1 0 0
node 14 1 0 0
node 17 1 0 0
gene 3 1 8 -1.87049 0 1 -1.87049 1
gene 3 2 8 0.944288 0 2 0.944288 1
gene 2 3 8 -1.10739 0 3 -1.10739 1
gene 3 4 8 -0.732597 0 4 -0.732597 1
gene 2 5 8 2.61399 0 5 2.61399 0
gene 3 6 8 2.07619 0 6 2.07619 1
gene 2 7 8 -0.72718 0 7 -0.72718 1
gene 3 4 9 1.97369 0 8 1.97369 0
gene 3 9 8 -0.328974 0 9 -0.328974 1
gene 2 5 10 2.80074 0 10 2.80074 1
gene 2 10 8 1.33808 0 11 1.33808 0
gene 3 4 14 -1.04741 0 27 -1.04741 1
gene 3 14 9 1.80462 0 28 1.80462 1
gene 2 10 17 1 0 41 0 1
gene 2 17 8 1.33808 0 42 0 1
gene 2 10 14 -0.277932 0 46 -0.277932 1
genomeend 2973

/* Organism #3671 Fitness: 139 Error: 0 */
genomestart 3671
trait 1 0.1 0 0 0 0 0 0 0 
trait 2 0.2 0 0 0 0 0 0 0 
trait 3 0.3 0 0 0 0 0.175878 0 0.7781 
node 1 2 1 1
node 2 3 1 1
node 3 2 1 1
node 4 1 1 1
node 5 3 1 1
node 6 3 1 1
node 7 1 1 3
node 8 2 0 2
node 9 1 0 0
node 10 1 0 0
node 14 1 0 0
node 17 1 0 0
gene 3 1 8 -1.87049 0 1 -1.87049 1
gene 3 2 8 0.944288 0 2 0.944288 1
gene 2 3 8 -1.10739 0 3 -1.10739 1
gene 3 4 8 -0.732597 0 4 -0.732597 1
gene 2 5 8 2.61399 0 5 2.61399 0
gene 3 6 8 2.07619 0 6 2.07619 1
gene 2 7 8 -0.72718 0 7 -0.72718 1
gene 3 4 9 1.97369 0 8 1.97369 0
gene 3 9 8 -0.328974 0 9 -0.328974 1
gene 2 5 10 2.80074 0 10 2.80074 1
gene 2 10 8 1.33808 0 11 1.33808 0
gene 3 4 14 -1.04741 0 27 -1.04741 1
gene 3 14 9 1.80462 0 28 1.80462 1
gene 2 10 17 1 0 41 0 1
gene 2 17 8 1.33808 0 42 0 1
gene 2 10 14 -0.277932 0 46 -0.277932 1
genomeend 3671

/* Organism #4063 Fitness: 139 Error: 0 */
genomestart 4063
trait 1 0.1 0 0 0 0 0 0 0 
trait 2 0.2 0 0 0 0 0 0 0 
trait 3 0.3 0 0 0 0 0.0879391 0 0.38905 
node 1 2 1 1
node 2 3 1 1
node 3 2 1 1
node 4 1 1 1
node 5 3 1 1
node 6 3 1 1
node 7 1 1 3
node 8 2 0 2
node 9 1 0 0
node 10 1 0 0
node 14 1 0 0
node 17 1 0 0
gene 3 1 8 -1.87049 0 1 -1.87049 1
gene 3 2 8 0.944288 0 2 0.944288 1
gene 2 3 8 -1.10739 0 3 -1.10739 1
gene 3 4 8 -0.732597 0 4 -0.732597 1
gene 2 5 8 2.61399 0 5 2.61399 0
gene 3 6 8 2.07619 0 6 2.07619 1
gene 2 7 8 -0.72718 0 7 -0.72718 1
gene 3 4 9 1.97369 0 8 1.97369 0
gene 3 9 8 -0.328974 0 9 -0.328974 1
gene 2 5 10 2.80074 0 10 2.80074 1
gene 2 10 8 1.33808 0 11 1.33808 0
gene 3 4 14 -1.04741 0 27 -1.04741 1
gene 3 14 9 1.80462 0 28 1.80462 1
gene 2 10 17 1 0 41 0 1
gene 2 17 8 1.33808 0 42 0 1
gene 2 10 14 -0.277932 0 46 -0.277932 1
genomeend 4063

/* Species #3 : (Size 15) (AF 0) (Age 1)  */


/* Organism #3474 Fitness: 167 Error: 0 */
genomestart 3474
trait 1 0.38125 0 0 0 0 0.28263 0 0.296773 
trait 2 0.2 0 0 0 0 0 0 0 
trait 3 0.3 0 0 0 0 0 0 0 
node 1 2 1 1
node 2 1 1 1
node 3 1 1 1
node 4 2 1 1
node 5 2 1 1
node 6 2 1 1
node 7 2 1 3
node 8 2 0 2
node 9 1 0 0
node 11 1 0 0
node 13 1 0 0
node 14 1 0 0
gene 3 1 8 3.63083 0 1 3.63083 1
gene 1 2 8 4.3516 0 2 4.3516 0
gene 1 3 8 -1.67051 0 3 -1.67051 1
gene 2 4 8 -0.306711 0 4 -0.306711 0
gene 3 5 8 5.50261 0 5 5.50261 1
gene 2 6 8 0.7519 0 6 0.7519 1
gene 1 7 8 1.40443 0 7 1.40443 1
gene 2 4 9 -1.20944 0 8 -1.20944 0
gene 2 9 8 -3.28558 0 9 -3.28558 0
gene 1 2 11 2.11875 0 13 2.11875 1
gene 1 11 8 0.462317 0 14 0.462317 1
gene 2 9 13 -1.94529 0 21 -1.94529 1
gene 2 13 8 -3.75568 0 22 -3.75568 1
gene 2 4 14 2.06609 0 27 2.06609 1
gene 2 14 9 -2.84602 0 28 -2.84602 1
gene 3 1 11 0.887387 0 55 0 1
genomeend 3474

/* Organism #2850 Fitness: 167 Error: 0 */
genomestart 2850
trait 1 0.38125 0 0 0 0 0.28263 0 0.296773 
trait 2 0.2 0 0 0 0 0 0 0 
trait 3 0.3 0 0 0 0 0 0 0 
node 1 2 1 1
node 2 1 1 1
node 3 1 1 1
node 4 2 1 1
node 5 2 1 1
node 6 2 1 1
node 7 2 1 3
node 8 2 0 2
node 9 1 0 0
node 11 1 0 0
node 13 1 0 0
node 14 1 0 0
gene 3 1 8 3.63083 0 1 3.63083 1
gene 1 2 8 4.3516 0 2 4.3516 0
gene 1 3 8 -1.67051 0 3 -1.67051 1
gene 2 4 8 -0.306711 0 4 -0.306711 0
gene 3 5 8 5.50261 0 5 5.50261 1
gene 2 6 8 0.7519 0 6 0.7519 1
gene 1 7 8 1.40443 0 7 1.40443 1
gene 2 4 9 -1.20944 0 8 -1.20944 0
gene 2 9 8 -3.28558 0 9 -3.28558 0
gene 1 2 11 2.11875 0 13 2.11875 1
gene 1 11 8 0.462317 0 14 0.462317 1
gene 2 9 13 -1.94529 0 21 -1.94529 1
gene 2 13 8 -3.75568 0 22 -3.75568 1
gene 2 4 14 2.06609 0 27 2.06609 1
gene 2 14 9 -2.84602 0 28 -2.84602 1
gene 3 1 11 0.887387 0 55 0 1
genomeend 2850

/* Organism #3599 Fitness: 167 Error: 0 */
genomestart 3599
trait 1 0.38125 0 0 0 0 0.28263 0 0.296773 
trait 2 0.2 0 0 0 0 0 0 0 
trait 3 0.3 0 0 0 0 0 0 0 
node 1 2 1 1
node 2 1 1 1
node 3 1 1 1
node 4 2 1 1
node 5 2 1 1
node 6 2 1 1
node 7 2 1 3
node 8 2 0 2
node 9 1 0 0
node 11 1 0 0
node 13 1 0 0
node 14 1 0 0
gene 3 1 8 3.63083 0 1 3.63083 1
gene 1 2 8 4.3516 0 2 4.3516 0
gene 1 3 8 -1.67051 0 3 -1.67051 1
gene 2 4 8 -0.306711 0 4 -0.306711 0
gene 3 5 8 5.50261 0 5 5.50261 1
gene 2 6 8 0.7519 0 6 0.7519 1
gene 1 7 8 1.40443 0 7 1.40443 1
gene 2 4 9 -1.20944 0 8 -1.20944 0
gene 2 9 8 -3.28558 0 9 -3.28558 0
gene 1 2 11 2.11875 0 13 2.11875 1
gene 1 11 8 0.462317 0 14 0.462317 1
gene 2 9 13 -1.94529 0 21 -1.94529 1
gene 2 13 8 -3.75568 0 22 -3.75568 1
gene 2 4 14 2.06609 0 27 2.06609 1
gene 2 14 9 -2.84602 0 28 -2.84602 1
gene 3 1 11 0.887387 0 55 0 1
genomeend 3599

/* Organism #3795 Fitness: 167 Error: 0 */
genomestart 3795
trait 1 0.38125 0 0 0 0 0.28263 0 0.296773 
trait 2 0.2 0 0 0 0 0 0 0 
trait 3 0.3 0 0 0 0 0 0 0 
node 1 2 1 1
node 2 1 1 1
node 3 1 1 1
node 4 2 1 1
node 5 2 1 1
node 6 2 1 1
node 7 2 1 3
node 8 2 0 2
node 9 1 0 0
node 11 1 0 0
node 13 1 0 0
node 14 1 0 0
gene 3 1 8 3.63083 0 1 3.63083 1
gene 1 2 8 4.3516 0 2 4.3516 0
gene 1 3 8 -1.67051 0 3 -1.67051 1
gene 2 4 8 -0.306711 0 4 -0.306711 0
gene 3 5 8 5.50261 0 5 5.50261 1
gene 2 6 8 0.7519 0 6 0.7519 1
gene 1 7 8 1.40443 0 7 1.40443 1
gene 2 4 9 -1.20944 0 8 -1.20944 0
gene 2 9 8 -3.28558 0 9 -3.28558 0
gene 1 2 11 2.11875 0 13 2.11875 1
gene 1 11 8 0.462317 0 14 0.462317 1
gene 2 9 13 -1.94529 0 21 -1.94529 1
gene 2 13 8 -3.75568 0 22 -3.75568 1
gene 2 4 14 2.06609 0 27 2.06609 1
gene 2 14 9 -2.84602 0 28 -2.84602 1
gene 3 1 11 0.887387 0 55 0 1
genomeend 3795

/* Organism #3233 Fitness: 167 Error: 0 */
genomestart 3233
trait 1 0.38125 0 0 0 0 0.28263 0 0.296773 
trait 2 0.2 0 0 0 0 0 0 0 
trait 3 0.3 0 0 0 0 0 0 0 
node 1 2 1 1
node 2 1 1 1
node 3 1 1 1
node 4 2 1 1
node 5 2 1 1
node 6 2 1 1
node 7 2 1 3
node 8 2 0 2
node 9 1 0 0
node 11 1 0 0
node 13 1 0 0
node 14 1 0 0
gene 3 1 8 3.63083 0 1 3.63083 1
gene 1 2 8 4.3516 0 2 4.3516 0
gene 1 3 8 -1.67051 0 3 -1.67051 1
gene 2 4 8 -0.306711 0 4 -0.306711 0
gene 3 5 8 5.50261 0 5 5.50261 1
gene 2 6 8 0.7519 0 6 0.7519 1
gene 1 7 8 1.40443 0 7 1.40443 1
gene 2 4 9 -1.20944 0 8 -1.20944 0
gene 2 9 8 -3.28558 0 9 -3.28558 0
gene 1 2 11 2.11875 0 13 2.11875 1
gene 1 11 8 0.462317 0 14 0.462317 1
gene 2 9 13 -1.94529 0 21 -1.94529 1
gene 2 13 8 -3.75568 0 22 -3.75568 1
gene 2 4 14 2.06609 0 27 2.06609 1
gene 2 14 9 -2.84602 0 28 -2.84602 1
gene 3 1 11 0.887387 0 55 0 1
genomeend 3233

/* Organism #3097 Fitness: 167 Error: 0 */
genomestart 3097
trait 1 0.38125 0 0 0 0 0.28263 0 0.296773 
trait 2 0.2 0 0 0 0 0 0 0 
trait 3 0.3 0 0 0 0 0 0 0 
node 1 2 1 1
node 2 1 1 1
node 3 1 1 1
node 4 2 1 1
node 5 2 1 1
node 6 2 1 1
node 7 2 1 3
node 8 2 0 2
node 9 1 0 0
node 11 1 0 0
node 13 1 0 0
node 14 1 0 0
gene 3 1 8 3.63083 0 1 3.63083 1
gene 1 2 8 4.3516 0 2 4.3516 0
gene 1 3 8 -1.67051 0 3 -1.67051 1
gene 2 4 8 -0.306711 0 4 -0.306711 0
gene 3 5 8 5.50261 0 5 5.50261 1
gene 2 6 8 0.7519 0 6 0.7519 1
gene 1 7 8 1.40443 0 7 1.40443 1
gene 2 4 9 -1.20944 0 8 -1.20944 0
gene 2 9 8 -3.28558 0 9 -3.28558 0
gene 1 2 11 2.11875 0 13 2.11875 1
gene 1 11 8 0.462317 0 14 0.462317 1
gene 2 9 13 -1.94529 0 21 -1.94529 1
gene 2 13 8 -3.75568 0 22 -3.75568 1
gene 2 4 14 2.06609 0 27 2.06609 1
gene 2 14 9 -2.84602 0 28 -2.84602 1
gene 3 1 11 0.887387 0 55 0 1
genomeend 3097

/* Organism #3115 Fitness: 167 Error: 0 */
genomestart 3115
trait 1 0.38125 0 0 0 0 0.28263 0 0.296773 
trait 2 0.2 0 0 0 0 0 0 0 
trait 3 0.3 0 0 0 0 0 0 0 
node 1 2 1 1
node 2 1 1 1
node 3 1 1 1
node 4 2 1 1
node 5 2 1 1
node 6 2 1 1
node 7 2 1 3
node 8 2 0 2
node 9 1 0 0
node 11 1 0 0
node 13 1 0 0
node 14 1 0 0
gene 3 1 8 3.63083 0 1 3.63083 1
gene 1 2 8 4.3516 0 2 4.3516 0
gene 1 3 8 -1.67051 0 3 -1.67051 1
gene 2 4 8 -0.306711 0 4 -0.306711 0
gene 3 5 8 5.50261 0 5 5.50261 1
gene 2 6 8 0.7519 0 6 0.7519 1
gene 1 7 8 1.40443 0 7 1.40443 1
gene 2 4 9 -1.20944 0 8 -1.20944 0
gene 2 9 8 -3.28558 0 9 -3.28558 0
gene 1 2 11 2.11875 0 13 2.11875 1
gene 1 11 8 0.462317 0 14 0.462317 1
gene 2 9 13 -1.94529 0 21 -1.94529 1
gene 2 13 8 -3.75568 0 22 -3.75568 1
gene 2 4 14 2.06609 0 27 2.06609 1
gene 2 14 9 -2.84602 0 28 -2.84602 1
gene 3 1 11 0.887387 0 55 0 1
genomeend 3115

/* Organism #3539 Fitness: 167 Error: 0 */
genomestart 3539
trait 1 0.38125 0 0 0 0 0.28263 0 0.296773 
trait 2 0.779669 0 0 0 0 0 0 0 
trait 3 0.3 0 0 0 0 0 0 0 
node 1 2 1 1
node 2 1 1 1
node 3 1 1 1
node 4 2 1 1
node 5 2 1 1
node 6 2 1 1
node 7 2 1 3
node 8 2 0 2
node 9 1 0 0
node 11 1 0 0
node 13 1 0 0
node 14 1 0 0
gene 3 1 8 3.63083 0 1 3.63083 1
gene 1 2 8 4.3516 0 2 4.3516 0
gene 1 3 8 -1.67051 0 3 -1.67051 1
gene 2 4 8 -0.306711 0 4 -0.306711 0
gene 3 5 8 5.50261 0 5 5.50261 1
gene 2 6 8 0.7519 0 6 0.7519 1
gene 1 7 8 1.40443 0 7 1.40443 1
gene 2 4 9 -1.20944 0 8 -1.20944 0
gene 2 9 8 -3.28558 0 9 -3.28558 0
gene 1 2 11 2.11875 0 13 2.11875 1
gene 1 11 8 0.462317 0 14 0.462317 1
gene 2 9 13 -1.94529 0 21 -1.94529 1
gene 2 13 8 -3.75568 0 22 -3.75568 1
gene 2 4 14 2.06609 0 27 2.06609 1
gene 2 14 9 -2.84602 0 28 -2.84602 1
gene 3 1 11 0.887387 0 55 0 1
genomeend 3539

/* Organism #3700 Fitness: 167 Error: 0 */
genomestart 3700
trait 1 0.38125 0 0 0 0 0.28263 0 0.296773 
trait 2 0.2 0 0 0 0 0 0 0 
trait 3 0.3 0 0 0 0 0 0 0 
node 1 2 1 1
node 2 1 1 1
node 3 1 1 1
node 4 2 1 1
node 5 2 1 1
node 6 2 1 1
node 7 2 1 3
node 8 2 0 2
node 9 1 0 0
node 11 1 0 0
node 13 1 0 0
node 14 1 0 0
gene 3 1 8 3.63083 0 1 3.63083 1
gene 1 2 8 4.3516 0 2 4.3516 0
gene 1 3 8 -1.67051 0 3 -1.67051 1
gene 2 4 8 -0.306711 0 4 -0.306711 0
gene 3 5 8 5.50261 0 5 5.50261 1
gene 2 6 8 0.7519 0 6 0.7519 1
gene 1 7 8 1.40443 0 7 1.40443 1
gene 2 4 9 -1.20944 0 8 -1.20944 0
gene 2 9 8 -3.28558 0 9 -3.28558 0
gene 1 2 11 2.11875 0 13 2.11875 1
gene 1 11 8 0.462317 0 14 0.462317 1
gene 2 9 13 -1.94529 0 21 -1.94529 1
gene 2 13 8 -3.75568 0 22 -3.75568 1
gene 2 4 14 2.06609 0 27 2.06609 1
gene 2 14 9 -2.84602 0 28 -2.84602 1
gene 3 1 11 0.887387 0 55 0 1
genomeend 3700

/* Organism #3866 Fitness: 167 Error: 0 */
genomestart 3866
trait 1 0.38125 0 0 0 0 0.28263 0 0.296773 
trait 2 0.489834 0 0 0 0 0 0 0 
trait 3 0.3 0 0 0 0 0 0 0 
node 1 2 1 1
node 2 1 1 1
node 3 1 1 1
node 4 2 1 1
node 5 2 1 1
node 6 2 1 1
node 7 2 1 3
node 8 2 0 2
node 9 1 0 0
node 11 1 0 0
node 13 1 0 0
node 14 1 0 0
gene 3 1 8 3.63083 0 1 3.63083 1
gene 1 2 8 4.3516 0 2 4.3516 0
gene 1 3 8 -1.67051 0 3 -1.67051 1
gene 2 4 8 -0.306711 0 4 -0.306711 0
gene 3 5 8 5.50261 0 5 5.50261 1
gene 2 6 8 0.7519 0 6 0.7519 1
gene 1 7 8 1.40443 0 7 1.40443 1
gene 2 4 9 -1.20944 0 8 -1.20944 0
gene 2 9 8 -3.28558 0 9 -3.28558 0
gene 1 2 11 2.11875 0 13 2.11875 1
gene 3 11 8 0.462317 0 14 0.462317 1
gene 2 9 13 -1.94529 0 21 -1.94529 1
gene 2 13 8 -3.75568 0 22 -3.75568 1
gene 2 4 14 2.06609 0 27 2.06609 1
gene 2 14 9 -2.84602 0 28 -2.84602 1
gene 3 1 11 0.887387 0 55 0 1
genomeend 3866

/* Organism #4197 Fitness: 167 Error: 0 */
genomestart 4197
trait 1 0.38125 0 0 0 0 0.28263 0 0.296773 
trait 2 0.2 0 0 0 0 0 0 0 
trait 3 0.3 0 0 0 0 0 0 0 
node 1 2 1 1
node 2 1 1 1
node 3 1 1 1
node 4 2 1 1
node 5 2 1 1
node 6 2 1 1
node 7 2 1 3
node 8 2 0 2
node 9 1 0 0
node 11 1 0 0
node 13 1 0 0
node 14 1 0 0
gene 3 1 8 3.63083 0 1 3.63083 1
gene 1 2 8 4.3516 0 2 4.3516 0
gene 1 3 8 -1.67051 0 3 -1.67051 1
gene 2 4 8 -0.306711 0 4 -0.306711 0
gene 3 5 8 5.50261 0 5 5.50261 1
gene 2 6 8 0.7519 0 6 0.7519 1
gene 1 7 8 1.40443 0 7 1.40443 1
gene 2 4 9 -1.20944 0 8 -1.20944 0
gene 2 9 8 -3.28558 0 9 -3.28558 0
gene 1 2 11 2.11875 0 13 2.11875 1
gene 1 11 8 0.462317 0 14 0.462317 1
gene 2 9 13 -1.94529 0 21 -1.94529 1
gene 2 13 8 -3.75568 0 22 -3.75568 1
gene 2 4 14 2.06609 0 27 2.06609 1
gene 2 14 9 -2.84602 0 28 -2.84602 1
gene 3 1 11 0.887387 0 55 0 1
genomeend 4197

/* Organism #2985 Fitness: 162 Error: 0 */
genomestart 2985
trait 1 0.38125 0 0 0 0 0.28263 0 0.296773 
trait 2 0.2 0 0 0 0 0 0 0 
trait 3 0.3 0 0 0 0 0 0 0 
node 1 2 1 1
node 2 1 1 1
node 3 1 1 1
node 4 2 1 1
node 5 2 1 1
node 6 2 1 1
node 7 2 1 3
node 8 2 0 2
node 9 1 0 0
node 11 1 0 0
node 13 1 0 0
node 14 1 0 0
gene 3 1 8 3.63083 0 1 3.63083 1
gene 1 2 8 4.3516 0 2 4.3516 0
gene 1 3 8 -1.67051 0 3 -1.67051 1
gene 2 4 8 -0.306711 0 4 -0.306711 0
gene 3 5 8 5.50261 0 5 5.50261 1
gene 2 6 8 0.7519 0 6 0.7519 1
gene 1 7 8 1.40443 0 7 1.40443 1
gene 2 4 9 -1.20944 0 8 -1.20944 0
gene 2 9 8 -3.28558 0 9 -3.28558 0
gene 1 2 11 2.11875 0 13 2.11875 1
gene 1 11 8 0.462317 0 14 0.462317 1
gene 2 9 13 -1.94529 0 21 -1.94529 1
gene 2 13 8 -3.75568 0 22 -3.75568 1
gene 2 4 14 2.06609 0 27 2.06609 1
gene 2 14 9 -2.84602 0 28 -2.84602 1
gene 3 3 14 -0.0691549 0 74 0 1
genomeend 2985

/* Organism #3054 Fitness: 161 Error: 0 */
genomestart 3054
trait 1 0.38125 0 0 0 0 0.28263 0 0.296773 
trait 2 0.2 0 0 0 0 0 0 0 
trait 3 0.3 0 0 0 0 0 0 0 
node 1 2 1 1
node 2 1 1 1
node 3 1 1 1
node 4 2 1 1
node 5 2 1 1
node 6 2 1 1
node 7 2 1 3
node 8 2 0 2
node 9 1 0 0
node 11 1 0 0
node 13 1 0 0
node 14 1 0 0
gene 3 1 8 3.63083 0 1 3.63083 1
gene 1 2 8 4.3516 0 2 4.3516 0
gene 1 3 8 -1.67051 0 3 -1.67051 1
gene 2 4 8 -0.306711 0 4 -0.306711 0
gene 3 5 8 5.50261 0 5 5.50261 1
gene 2 6 8 0.7519 0 6 0.7519 1
gene 1 7 8 1.40443 0 7 1.40443 1
gene 2 4 9 -1.20944 0 8 -1.20944 0
gene 2 9 8 -3.28558 0 9 -3.28558 0
gene 1 2 11 2.11875 0 13 2.11875 1
gene 1 11 8 0.462317 0 14 0.462317 1
gene 2 9 13 -1.94529 0 21 -1.94529 1
gene 2 13 8 -3.75568 0 22 -3.75568 1
gene 2 4 14 2.06609 0 27 2.06609 1
gene 2 14 9 -2.84602 0 28 -2.84602 1
genomeend 3054

/* Organism #3012 Fitness: 161 Error: 0 */
genomestart 3012
trait 1 0.38125 0 0 0 0 0.28263 0 0.296773 
trait 2 0.2 0 0 0 0 0 0 0 
trait 3 0.3 0 0 0 0 0 0 0 
node 1 2 1 1
node 2 1 1 1
node 3 1 1 1
node 4 2 1 1
node 5 2 1 1
node 6 2 1 1
node 7 2 1 3
node 8 2 0 2
node 9 1 0 0
node 11 1 0 0
node 13 1 0 0
node 14 1 0 0
gene 3 1 8 3.63083 0 1 3.63083 1
gene 1 2 8 4.3516 0 2 4.3516 0
gene 1 3 8 -1.67051 0 3 -1.67051 1
gene 2 4 8 -0.306711 0 4 -0.306711 0
gene 3 5 8 5.50261 0 5 5.50261 1
gene 2 6 8 0.7519 0 6 0.7519 1
gene 1 7 8 1.40443 0 7 1.40443 1
gene 2 4 9 -1.20944 0 8 -1.20944 0
gene 2 9 8 -3.28558 0 9 -3.28558 0
gene 1 2 11 2.11875 0 13 2.11875 1
gene 1 11 8 0.462317 0 14 0.462317 1
gene 2 9 13 -1.94529 0 21 -1.94529 1
gene 2 13 8 -3.75568 0 22 -3.75568 1
gene 2 4 14 2.06609 0 27 2.06609 1
gene 2 14 9 -2.84602 0 28 -2.84602 1
genomeend 3012

/* Organism #2989 Fitness: 161 Error: 0 */
genomestart 2989
trait 1 0.38125 0 0 0 0 0.28263 0 0.296773 
trait 2 0.2 0 0 0 0 0 0 0 
trait 3 0.3 0 0 0 0 0 0 0 
node 1 2 1 1
node 2 1 1 1
node 3 1 1 1
node 4 2 1 1
node 5 2 1 1
node 6 2 1 1
node 7 2 1 3
node 8 2 0 2
node 9 1 0 0
node 11 1 0 0
node 13 1 0 0
node 14 1 0 0
gene 3 1 8 3.63083 0 1 3.63083 1
gene 1 2 8 4.3516 0 2 4.3516 0
gene 1 3 8 -1.67051 0 3 -1.67051 1
gene 2 4 8 -0.306711 0 4 -0.306711 0
gene 3 5 8 5.50261 0 5 5.50261 1
gene 2 6 8 0.7519 0 6 0.7519 1
gene 1 7 8 1.40443 0 7 1.40443 1
gene 2 4 9 -1.20944 0 8 -1.20944 0
gene 2 9 8 -3.28558 0 9 -3.28558 0
gene 1 2 11 2.11875 0 13 2.11875 1
gene 1 11 8 0.462317 0 14 0.462317 1
gene 2 9 13 -1.94529 0 21 -1.94529 1
gene 2 13 8 -3.75568 0 22 -3.75568 1
gene 2 4 14 2.06609 0 27 2.06609 1
gene 2 14 9 -2.84602 0 28 -2.84602 1
genomeend 2989

/* Species #8 : (Size 25) (AF 0) (Age 1)  */


/* Organism #3913 Fitness: 287 Error: 0 */
genomestart 3913
trait 1 0.0875 0 0.0669881 0 0 0 0.0673315 0.0261696 
trait 2 0.0875 0 0.0355178 0 0 0.103858 0 0 
trait 3 0.3 0 0 0 0 0 0 0 
node 1 2 1 1
node 2 2 1 1
node 3 2 1 1
node 4 1 1 1
node 5 3 1 1
node 6 1 1 1
node 7 1 1 3
node 8 2 0 2
node 9 1 0 0
node 15 1 0 0
gene 3 1 8 1.73147 0 1 1.73147 1
gene 3 2 8 2.21052 0 2 2.21052 1
gene 2 3 8 4.01968 0 3 4.01968 0
gene 3 4 8 -3.71067 0 4 -3.71067 1
gene 2 5 8 2.64939 0 5 2.64939 1
gene 3 6 8 1.6488 0 6 1.6488 1
gene 1 7 8 -1.83116 0 7 -1.83116 1
gene 3 4 9 -1.5705 0 8 -1.5705 1
gene 3 9 8 -1.79407 0 9 -1.79407 1
gene 3 5 9 -1.51254 0 12 -1.51254 1
gene 3 3 15 -2.17972 0 30 -2.17972 1
gene 2 15 8 3.33398 0 31 3.33398 1
gene 2 15 9 0.346969 0 68 0.346969 1
gene 3 4 15 -0.75869 0 102 0 1
genomeend 3913

/* Organism #3718 Fitness: 287 Error: 0 */
genomestart 3718
trait 1 0.1 0 0 0 0 0 0 0 
trait 2 0.05 0 0.0473571 0 0 0.138478 0 0 
trait 3 0.3 0 0 0 0 0 0 0 
node 1 2 1 1
node 2 2 1 1
node 3 2 1 1
node 4 1 1 1
node 5 3 1 1
node 6 1 1 1
node 7 1 1 3
node 8 2 0 2
node 9 1 0 0
node 15 1 0 0
gene 3 1 8 1.73147 0 1 1.73147 1
gene 3 2 8 2.21052 0 2 2.21052 1
gene 2 3 8 4.01968 0 3 4.01968 0
gene 3 4 8 -3.71067 0 4 -3.71067 1
gene 2 5 8 2.64939 0 5 2.64939 1
gene 3 6 8 1.6488 0 6 1.6488 1
gene 1 7 8 -1.83116 0 7 -1.83116 1
gene 3 4 9 -1.5705 0 8 -1.5705 1
gene 3 9 8 -1.79407 0 9 -1.79407 1
gene 3 5 9 -1.51254 0 12 -1.51254 1
gene 3 3 15 -2.17972 0 30 -2.17972 1
gene 2 15 8 3.33398 0 31 3.33398 1
gene 2 15 9 0.346969 0 68 0.346969 1
gene 3 4 15 -0.75869 0 102 -0.75869 1
genomeend 3718

/* Organism #4226 Fitness: 264 Error: 0 */
genomestart 4226
trait 1 0.096875 0 0.016747 0 0 0 0.0168329 0.00654241 
trait 2 0.078125 0 0.0384776 0 0 0.112513 0 0 
trait 3 0.3 0 0 0 0 0 0 0 
node 1 2 1 1
node 2 2 1 1
node 3 2 1 1
node 4 1 1 1
node 5 3 1 1
node 6 1 1 1
node 7 1 1 3
node 8 2 0 2
node 9 1 0 0
node 15 1 0 0
gene 3 1 8 1.73147 0 1 1.73147 1
gene 3 2 8 2.21052 0 2 2.21052 1
gene 2 3 8 4.01968 0 3 4.01968 0
gene 3 4 8 -3.71067 0 4 -3.71067 1
gene 2 5 8 2.64939 0 5 2.64939 1
gene 3 6 8 1.6488 0 6 1.6488 1
gene 1 7 8 -1.83116 0 7 -1.83116 1
gene 3 4 9 -1.5705 0 8 -1.5705 1
gene 3 9 8 -1.79407 0 9 -1.79407 1
gene 3 5 9 -1.51254 0 12 -1.51254 1
gene 3 3 15 -2.17972 0 30 -2.17972 1
gene 2 15 8 3.33398 0 31 3.33398 1
gene 2 15 9 0.346969 0 68 0.346969 1
genomeend 4226

/* Organism #4073 Fitness: 264 Error: 0 */
genomestart 4073
trait 1 0.1 0 0 0 0 0 0 0 
trait 2 0.1 0 0.0315714 0 0 0.0923185 0 0 
trait 3 0.3 0 0 0 0 0 0 0 
node 1 2 1 1
node 2 3 1 1
node 3 2 1 1
node 4 1 1 1
node 5 3 1 1
node 6 1 1 1
node 7 1 1 3
node 8 2 0 2
node 9 1 0 0
node 15 1 0 0
gene 3 1 8 1.73147 0 1 1.73147 1
gene 3 2 8 2.21052 0 2 2.21052 1
gene 2 3 8 4.01968 0 3 4.01968 0
gene 3 4 8 -3.71067 0 4 -3.71067 1
gene 2 5 8 2.64939 0 5 2.64939 1
gene 3 6 8 1.6488 0 6 1.6488 1
gene 1 7 8 -1.83116 0 7 -1.83116 1
gene 3 4 9 -1.5705 0 8 -1.5705 1
gene 3 9 8 -1.79407 0 9 -1.79407 1
gene 3 5 9 -1.51254 0 12 -1.51254 1
gene 3 3 15 -2.17972 0 30 -2.17972 1
gene 2 15 8 3.33398 0 31 3.33398 1
gene 2 15 9 0.346969 0 68 0.346969 1
genomeend 4073

/* Organism #3614 Fitness: 264 Error: 0 */
genomestart 3614
trait 1 0.075 0 0.133976 0 0 0 0.134663 0.0523392 
trait 2 0.125 0 0.0236785 0 0 0.0692389 0 0 
trait 3 0.3 0 0 0 0 0 0 0 
node 1 2 1 1
node 2 2 1 1
node 3 2 1 1
node 4 1 1 1
node 5 3 1 1
node 6 1 1 1
node 7 1 1 3
node 8 2 0 2
node 9 1 0 0
node 15 1 0 0
gene 3 1 8 1.73147 0 1 1.73147 1
gene 3 2 8 2.21052 0 2 2.21052 1
gene 2 3 8 4.01968 0 3 4.01968 0
gene 3 4 8 -3.71067 0 4 -3.71067 1
gene 2 5 8 2.64939 0 5 2.64939 1
gene 3 6 8 1.6488 0 6 1.6488 1
gene 1 7 8 -1.83116 0 7 -1.83116 1
gene 3 4 9 -1.5705 0 8 -1.5705 1
gene 3 9 8 -1.79407 0 9 -1.79407 1
gene 3 5 9 -1.51254 0 12 -1.51254 1
gene 3 3 15 -2.17972 0 30 -2.17972 1
gene 2 15 8 3.33398 0 31 3.33398 1
gene 2 15 9 0.346969 0 68 0.346969 1
genomeend 3614

/* Organism #3424 Fitness: 264 Error: 0 */
genomestart 3424
trait 1 0.1 0 0 0 0 0 0 0 
trait 2 0.1 0 0.0315714 0 0 0.0923185 0 0 
trait 3 0.3 0 0 0 0 0 0 0 
node 1 2 1 1
node 2 3 1 1
node 3 2 1 1
node 4 1 1 1
node 5 3 1 1
node 6 1 1 1
node 7 1 1 3
node 8 2 0 2
node 9 1 0 0
node 15 1 0 0
gene 3 1 8 1.73147 0 1 1.73147 1
gene 3 2 8 2.21052 0 2 2.21052 1
gene 2 3 8 4.01968 0 3 4.01968 0
gene 3 4 8 -3.71067 0 4 -3.71067 1
gene 2 5 8 2.64939 0 5 2.64939 1
gene 3 6 8 1.6488 0 6 1.6488 1
gene 1 7 8 -1.83116 0 7 -1.83116 1
gene 3 4 9 -1.5705 0 8 -1.5705 1
gene 3 9 8 -1.79407 0 9 -1.79407 1
gene 3 5 9 -1.51254 0 12 -1.51254 1
gene 3 3 15 -2.17972 0 30 -2.17972 1
gene 2 15 8 3.33398 0 31 3.33398 1
gene 2 15 9 0.346969 0 68 0.346969 1
genomeend 3424

/* Organism #3320 Fitness: 264 Error: 0 */
genomestart 3320
trait 1 0.1 0 0 0 0 0 0 0 
trait 2 0.1 0 0.0315714 0 0 0.0923185 0 0 
trait 3 0.3 0 0 0 0 0 0 0 
node 1 2 1 1
node 2 2 1 1
node 3 2 1 1
node 4 1 1 1
node 5 3 1 1
node 6 1 1 1
node 7 1 1 3
node 8 2 0 2
node 9 1 0 0
node 15 1 0 0
gene 3 1 8 1.73147 0 1 1.73147 1
gene 3 2 8 2.21052 0 2 2.21052 1
gene 2 3 8 4.01968 0 3 4.01968 0
gene 3 4 8 -3.71067 0 4 -3.71067 1
gene 2 5 8 2.64939 0 5 2.64939 1
gene 3 6 8 1.6488 0 6 1.6488 1
gene 1 7 8 -1.83116 0 7 -1.83116 1
gene 3 4 9 -1.5705 0 8 -1.5705 1
gene 3 9 8 -1.79407 0 9 -1.79407 1
gene 3 5 9 -1.51254 0 12 -1.51254 1
gene 3 3 15 -2.17972 0 30 -2.17972 1
gene 2 15 8 3.33398 0 31 3.33398 1
gene 2 15 9 0.346969 0 68 0.346969 1
genomeend 3320

/* Organism #3723 Fitness: 264 Error: 0 */
genomestart 3723
trait 1 0.0875 0 0.0669881 0 0 0 0.0673315 0.0261696 
trait 2 0.1625 0 0.0118393 0 0 0.0346194 0 0 
trait 3 0.3 0 0 0 0 0 0 0 
node 1 2 1 1
node 2 2 1 1
node 3 2 1 1
node 4 1 1 1
node 5 3 1 1
node 6 1 1 1
node 7 1 1 3
node 8 2 0 2
node 9 1 0 0
node 15 1 0 0
gene 3 1 8 1.73147 0 1 1.73147 1
gene 3 2 8 2.21052 0 2 2.21052 1
gene 2 3 8 4.01968 0 3 4.01968 0
gene 3 4 8 -3.71067 0 4 -3.71067 1
gene 2 5 8 2.64939 0 5 2.64939 1
gene 3 6 8 1.6488 0 6 1.6488 1
gene 1 7 8 -1.83116 0 7 -1.83116 1
gene 3 4 9 -1.5705 0 8 -1.5705 1
gene 3 9 8 -1.79407 0 9 -1.79407 1
gene 3 5 9 -1.51254 0 12 -1.51254 1
gene 3 3 15 -2.17972 0 30 -2.17972 1
gene 2 15 8 3.33398 0 31 3.33398 1
gene 2 15 9 0.346969 0 68 0.346969 1
genomeend 3723

/* Organism #3786 Fitness: 264 Error: 0 */
genomestart 3786
trait 1 0.0875 0 0.0669881 0 0 0 0.0673315 0.0261696 
trait 2 0.0875 0 0.0355178 0 0 0.103858 0 0 
trait 3 0.3 0 0 0 0 0 0 0 
node 1 2 1 1
node 2 2 1 1
node 3 2 1 1
node 4 1 1 1
node 5 3 1 1
node 6 1 1 1
node 7 1 1 3
node 8 2 0 2
node 9 1 0 0
node 15 1 0 0
gene 3 1 8 1.73147 0 1 1.73147 1
gene 3 2 8 2.21052 0 2 2.21052 1
gene 2 3 8 4.01968 0 3 4.01968 0
gene 3 4 8 -3.71067 0 4 -3.71067 1
gene 2 5 8 2.64939 0 5 2.64939 1
gene 3 6 8 1.6488 0 6 1.6488 1
gene 1 7 8 -1.83116 0 7 -1.83116 1
gene 3 4 9 -1.5705 0 8 -1.5705 1
gene 3 9 8 -1.79407 0 9 -1.79407 1
gene 3 5 9 -1.51254 0 12 -1.51254 1
gene 3 3 15 -2.17972 0 30 -2.17972 1
gene 2 15 8 3.33398 0 31 3.33398 1
gene 2 15 9 0.346969 0 68 0.346969 1
genomeend 3786

/* Organism #3074 Fitness: 264 Error: 0 */
genomestart 3074
trait 1 0.1 0 0 0 0 0 0 0 
trait 2 0.1 0 0.0315714 0 0 0.0923185 0 0 
trait 3 0.3 0 0 0 0 0 0 0 
node 1 2 1 1
node 2 3 1 1
node 3 2 1 1
node 4 1 1 1
node 5 3 1 1
node 6 1 1 1
node 7 1 1 3
node 8 2 0 2
node 9 1 0 0
node 15 1 0 0
gene 3 1 8 1.73147 0 1 1.73147 1
gene 3 2 8 2.21052 0 2 2.21052 1
gene 2 3 8 4.01968 0 3 4.01968 0
gene 3 4 8 -3.71067 0 4 -3.71067 1
gene 2 5 8 2.64939 0 5 2.64939 1
gene 3 6 8 1.6488 0 6 1.6488 1
gene 1 7 8 -1.83116 0 7 -1.83116 1
gene 3 4 9 -1.5705 0 8 -1.5705 1
gene 3 9 8 -1.79407 0 9 -1.79407 1
gene 3 5 9 -1.51254 0 12 -1.51254 1
gene 3 3 15 -2.17972 0 30 -2.17972 1
gene 2 15 8 3.33398 0 31 3.33398 1
gene 2 15 9 0.346969 0 68 0.346969 1
genomeend 3074

/* Organism #3980 Fitness: 264 Error: 0 */
genomestart 3980
trait 1 0.09375 0 0.0334941 0 0 0 0.0336657 0.0130848 
trait 2 0.08125 0 0.037491 0 0 0.109628 0 0 
trait 3 0.3 0 0 0 0 0 0 0 
node 1 2 1 1
node 2 2 1 1
node 3 2 1 1
node 4 1 1 1
node 5 3 1 1
node 6 1 1 1
node 7 1 1 3
node 8 2 0 2
node 9 1 0 0
node 15 1 0 0
gene 3 1 8 1.73147 0 1 1.73147 1
gene 3 2 8 2.21052 0 2 2.21052 1
gene 2 3 8 4.01968 0 3 4.01968 0
gene 3 4 8 -3.71067 0 4 -3.71067 1
gene 2 5 8 2.64939 0 5 2.64939 1
gene 3 6 8 1.6488 0 6 1.6488 1
gene 1 7 8 -1.83116 0 7 -1.83116 1
gene 3 4 9 -1.5705 0 8 -1.5705 1
gene 3 9 8 -1.79407 0 9 -1.79407 1
gene 3 5 9 -1.51254 0 12 -1.51254 1
gene 3 3 15 -2.17972 0 30 -2.17972 1
gene 2 15 8 3.33398 0 31 3.33398 1
gene 2 15 9 0.346969 0 68 0.346969 1
genomeend 3980

/* Organism #3847 Fitness: 264 Error: 0 */
genomestart 3847
trait 1 0.05 0 0.267953 0 0 0 0.269326 0.104678 
trait 2 0.15 0 0.0157857 0 0 0.0461592 0 0 
trait 3 0.3 0 0 0 0 0 0 0 
node 1 2 1 1
node 2 2 1 1
node 3 2 1 1
node 4 1 1 1
node 5 3 1 1
node 6 1 1 1
node 7 1 1 3
node 8 2 0 2
node 9 1 0 0
node 15 1 0 0
gene 3 1 8 1.73147 0 1 1.73147 1
gene 3 2 8 2.21052 0 2 2.21052 1
gene 2 3 8 4.01968 0 3 4.01968 0
gene 3 4 8 -3.71067 0 4 -3.71067 1
gene 2 5 8 2.64939 0 5 2.64939 1
gene 3 6 8 1.6488 0 6 1.6488 1
gene 1 7 8 -1.83116 0 7 -1.83116 1
gene 3 4 9 -1.5705 0 8 -1.5705 1
gene 3 9 8 -1.79407 0 9 -1.79407 1
gene 3 5 9 -1.51254 0 12 -1.51254 1
gene 3 3 15 -2.17972 0 30 -2.17972 1
gene 2 15 8 3.33398 0 31 3.33398 1
gene 2 15 9 0.346969 0 68 0.346969 1
genomeend 3847

/* Organism #3093 Fitness: 264 Error: 0 */
genomestart 3093
trait 1 0.1 0 0 0 0 0 0 0 
trait 2 0.1 0 0.0315714 0 0 0.0923185 0 0 
trait 3 0.3 0 0 0 0 0 0 0 
node 1 2 1 1
node 2 2 1 1
node 3 2 1 1
node 4 1 1 1
node 5 3 1 1
node 6 1 1 1
node 7 1 1 3
node 8 2 0 2
node 9 1 0 0
node 15 1 0 0
gene 3 1 8 1.73147 0 1 1.73147 1
gene 3 2 8 2.21052 0 2 2.21052 1
gene 2 3 8 4.01968 0 3 4.01968 0
gene 3 4 8 -3.71067 0 4 -3.71067 1
gene 2 5 8 2.64939 0 5 2.64939 1
gene 3 6 8 1.6488 0 6 1.6488 1
gene 1 7 8 -1.83116 0 7 -1.83116 1
gene 3 4 9 -1.5705 0 8 -1.5705 1
gene 3 9 8 -1.79407 0 9 -1.79407 1
gene 3 5 9 -1.51254 0 12 -1.51254 1
gene 3 3 15 -2.17972 0 30 -2.17972 1
gene 2 15 8 3.33398 0 31 3.33398 1
gene 2 15 9 0.346969 0 68 0.346969 1
genomeend 3093

/* Organism #3515 Fitness: 264 Error: 0 */
genomestart 3515
trait 1 0.05 0 0.267953 0 0 0 0.269326 0.104678 
trait 2 0.15 0 0.0157857 0 0 0.0461592 0 0 
trait 3 0.3 0 0 0 0 0 0 0 
node 1 2 1 1
node 2 2 1 1
node 3 2 1 1
node 4 1 1 1
node 5 3 1 1
node 6 1 1 1
node 7 1 1 3
node 8 2 0 2
node 9 1 0 0
node 15 1 0 0
gene 3 1 8 1.73147 0 1 1.73147 1
gene 3 2 8 2.21052 0 2 2.21052 1
gene 2 3 8 4.01968 0 3 4.01968 0
gene 3 4 8 -3.71067 0 4 -3.71067 1
gene 2 5 8 2.64939 0 5 2.64939 1
gene 3 6 8 1.6488 0 6 1.6488 1
gene 1 7 8 -1.83116 0 7 -1.83116 1
gene 3 4 9 -1.5705 0 8 -1.5705 1
gene 3 9 8 -1.79407 0 9 -1.79407 1
gene 3 5 9 -1.51254 0 12 -1.51254 1
gene 3 3 15 -2.17972 0 30 -2.17972 1
gene 2 15 8 3.33398 0 31 3.33398 1
gene 2 15 9 0.346969 0 68 0.346969 1
genomeend 3515

/* Organism #3768 Fitness: 264 Error: 0 */
genomestart 3768
trait 1 0.075 0 0.133976 0 0 0 0.134663 0.0523392 
trait 2 0.1 0 0.0315714 0 0 0.0923185 0 0 
trait 3 0.3 0 0 0 0 0 0 0 
node 1 2 1 1
node 2 2 1 1
node 3 2 1 1
node 4 1 1 1
node 5 3 1 1
node 6 1 1 1
node 7 1 1 3
node 8 2 0 2
node 9 1 0 0
node 15 1 0 0
gene 1 1 8 1.73147 0 1 1.73147 1
gene 3 2 8 2.21052 0 2 2.21052 1
gene 2 3 8 4.01968 0 3 4.01968 0
gene 3 4 8 -3.71067 0 4 -3.71067 1
gene 2 5 8 2.64939 0 5 2.64939 1
gene 3 6 8 1.6488 0 6 1.6488 1
gene 1 7 8 -1.83116 0 7 -1.83116 1
gene 3 4 9 -1.5705 0 8 -1.5705 1
gene 3 9 8 -1.79407 0 9 -1.79407 1
gene 3 5 9 -1.51254 0 12 -1.51254 1
gene 3 3 15 -2.17972 0 30 -2.17972 1
gene 2 15 8 3.33398 0 31 3.33398 1
gene 2 15 9 0.346969 0 68 0.346969 1
genomeend 3768

/* Organism #3894 Fitness: 264 Error: 0 */
genomestart 3894
trait 1 0.1 0 0 0 0 0 0 0 
trait 2 0.075 0 0.0394642 0 0 0.115398 0 0 
trait 3 0.3 0 0 0 0 0 0 0 
node 1 2 1 1
node 2 2 1 1
node 3 2 1 1
node 4 1 1 1
node 5 3 1 1
node 6 1 1 1
node 7 1 1 3
node 8 2 0 2
node 9 1 0 0
node 15 1 0 0
gene 3 1 8 1.73147 0 1 1.73147 1
gene 3 2 8 2.21052 0 2 2.21052 1
gene 2 3 8 4.01968 0 3 4.01968 0
gene 3 4 8 -3.71067 0 4 -3.71067 1
gene 2 5 8 2.64939 0 5 2.64939 1
gene 3 6 8 1.6488 0 6 1.6488 1
gene 1 7 8 -1.83116 0 7 -1.83116 1
gene 3 4 9 -1.5705 0 8 -1.5705 1
gene 3 9 8 -1.79407 0 9 -1.79407 1
gene 3 5 9 -1.51254 0 12 -1.51254 1
gene 3 3 15 -2.17972 0 30 -2.17972 1
gene 2 15 8 3.33398 0 31 3.33398 1
gene 2 15 9 0.346969 0 68 0.346969 1
genomeend 3894

/* Organism #3952 Fitness: 264 Error: 0 */
genomestart 3952
trait 1 0.09375 0 0.0334941 0 0 0 0.0336657 0.0130848 
trait 2 0.09375 0 0.0335446 0 0 0.0980884 0 0 
trait 3 0.3 0 0 0 0 0 0 0 
node 1 2 1 1
node 2 2 1 1
node 3 2 1 1
node 4 1 1 1
node 5 3 1 1
node 6 1 1 1
node 7 1 1 3
node 8 2 0 2
node 9 1 0 0
node 15 1 0 0
gene 3 1 8 1.73147 0 1 1.73147 1
gene 3 2 8 2.21052 0 2 2.21052 1
gene 2 3 8 4.01968 0 3 4.01968 0
gene 3 4 8 -3.71067 0 4 -3.71067 1
gene 2 5 8 2.64939 0 5 2.64939 1
gene 3 6 8 1.6488 0 6 1.6488 1
gene 1 7 8 -1.83116 0 7 -1.83116 1
gene 3 4 9 -1.5705 0 8 -1.5705 1
gene 3 9 8 -1.79407 0 9 -1.79407 1
gene 3 5 9 -1.51254 0 12 -1.51254 1
gene 3 3 15 -2.17972 0 30 -2.17972 1
gene 2 15 8 3.33398 0 31 3.33398 1
gene 2 15 9 0.346969 0 68 0.346969 1
genomeend 3952

/* Organism #3621 Fitness: 264 Error: 0 */
genomestart 3621
trait 1 0.05 0 0.267953 0 0 0 0.269326 0.104678 
trait 2 0.15 0 0.0157857 0 0 0.0461592 0 0 
trait 3 0.3 0 0 0 0 0 0 0 
node 1 2 1 1
node 2 2 1 1
node 3 2 1 1
node 4 1 1 1
node 5 3 1 1
node 6 1 1 1
node 7 1 1 3
node 8 2 0 2
node 9 1 0 0
node 15 1 0 0
gene 3 1 8 1.73147 0 1 1.73147 1
gene 3 2 8 2.21052 0 2 2.21052 1
gene 2 3 8 4.01968 0 3 4.01968 0
gene 3 4 8 -3.71067 0 4 -3.71067 1
gene 2 5 8 2.64939 0 5 2.64939 1
gene 3 6 8 1.6488 0 6 1.6488 1
gene 1 7 8 -1.83116 0 7 -1.83116 1
gene 3 4 9 -1.5705 0 8 -1.5705 1
gene 3 9 8 -1.79407 0 9 -1.79407 1
gene 3 5 9 -1.51254 0 12 -1.51254 1
gene 3 3 15 -2.17972 0 30 -2.17972 1
gene 2 15 8 3.33398 0 31 3.33398 1
gene 2 15 9 0.346969 0 68 0.346969 1
genomeend 3621

/* Organism #4003 Fitness: 264 Error: 0 */
genomestart 4003
trait 1 0.075 0 0.133976 0 0 0 0.134663 0.0523392 
trait 2 0.1 0 0.0315714 0 0 0.0923185 0 0 
trait 3 0.3 0 0 0 0 0 0 0 
node 1 2 1 1
node 2 2 1 1
node 3 2 1 1
node 4 1 1 1
node 5 3 1 1
node 6 1 1 1
node 7 1 1 3
node 8 2 0 2
node 9 1 0 0
node 15 1 0 0
gene 3 1 8 1.73147 0 1 1.73147 1
gene 3 2 8 2.21052 0 2 2.21052 1
gene 2 3 8 4.01968 0 3 4.01968 0
gene 3 4 8 -3.71067 0 4 -3.71067 1
gene 2 5 8 2.64939 0 5 2.64939 1
gene 3 6 8 1.6488 0 6 1.6488 1
gene 1 7 8 -1.83116 0 7 -1.83116 1
gene 3 4 9 -1.5705 0 8 -1.5705 1
gene 3 9 8 -1.79407 0 9 -1.79407 1
gene 3 5 9 -1.51254 0 12 -1.51254 1
gene 3 3 15 -2.17972 0 30 -2.17972 1
gene 2 15 8 3.33398 0 31 3.33398 1
gene 2 15 9 0.346969 0 68 0.346969 1
genomeend 4003

/* Organism #3270 Fitness: 264 Error: 0 */
genomestart 3270
trait 1 0 0 0.535905 0 0 0 0.538652 0.209357 
trait 2 0.1 0 0.0315714 0 0 0.0923185 0 0 
trait 3 0.3 0 0 0 0 0 0 0 
node 1 2 1 1
node 2 2 1 1
node 3 2 1 1
node 4 1 1 1
node 5 3 1 1
node 6 1 1 1
node 7 1 1 3
node 8 2 0 2
node 9 1 0 0
node 15 1 0 0
gene 3 1 8 1.73147 0 1 1.73147 1
gene 3 2 8 2.21052 0 2 2.21052 1
gene 2 3 8 4.01968 0 3 4.01968 0
gene 3 4 8 -3.71067 0 4 -3.71067 1
gene 2 5 8 2.64939 0 5 2.64939 1
gene 3 6 8 1.6488 0 6 1.6488 1
gene 1 7 8 -1.83116 0 7 -1.83116 1
gene 3 4 9 -1.5705 0 8 -1.5705 1
gene 3 9 8 -1.79407 0 9 -1.79407 1
gene 3 5 9 -1.51254 0 12 -1.51254 1
gene 3 3 15 -2.17972 0 30 -2.17972 1
gene 2 15 8 3.33398 0 31 3.33398 1
gene 2 15 9 0.346969 0 68 0.346969 1
genomeend 3270

/* Organism #3147 Fitness: 264 Error: 0 */
genomestart 3147
trait 1 0.1 0 0 0 0 0 0 0 
trait 2 0 0 0.0631428 0 0 0.184637 0 0 
trait 3 0.3 0 0 0 0 0 0 0 
node 1 2 1 1
node 2 3 1 1
node 3 2 1 1
node 4 1 1 1
node 5 3 1 1
node 6 1 1 1
node 7 1 1 3
node 8 2 0 2
node 9 1 0 0
node 15 1 0 0
gene 3 1 8 1.73147 0 1 1.73147 1
gene 3 2 8 2.21052 0 2 2.21052 1
gene 2 3 8 4.01968 0 3 4.01968 0
gene 3 4 8 -3.71067 0 4 -3.71067 1
gene 2 5 8 2.64939 0 5 2.64939 1
gene 3 6 8 1.6488 0 6 1.6488 1
gene 1 7 8 -1.83116 0 7 -1.83116 1
gene 3 4 9 -1.5705 0 8 -1.5705 1
gene 3 9 8 -1.79407 0 9 -1.79407 1
gene 3 5 9 -1.51254 0 12 -1.51254 1
gene 3 3 15 -2.17972 0 30 -2.17972 1
gene 2 15 8 3.33398 0 31 3.33398 1
gene 2 15 9 0.346969 0 68 0.346969 1
genomeend 3147

/* Organism #3749 Fitness: 264 Error: 0 */
genomestart 3749
trait 1 0.09375 0 0.0334941 0 0 0 0.0336657 0.0130848 
trait 2 0.10625 0 0.0295982 0 0 0.0865486 0 0 
trait 3 0.3 0 0 0 0 0 0 0 
node 1 2 1 1
node 2 2 1 1
node 3 2 1 1
node 4 1 1 1
node 5 3 1 1
node 6 1 1 1
node 7 1 1 3
node 8 2 0 2
node 9 1 0 0
node 15 1 0 0
gene 3 1 8 1.73147 0 1 1.73147 1
gene 3 2 8 2.21052 0 2 2.21052 1
gene 2 3 8 4.01968 0 3 4.01968 0
gene 3 4 8 -3.71067 0 4 -3.71067 1
gene 2 5 8 2.64939 0 5 2.64939 1
gene 3 6 8 1.6488 0 6 1.6488 1
gene 1 7 8 -1.83116 0 7 -1.83116 1
gene 3 4 9 -1.5705 0 8 -1.5705 1
gene 3 9 8 -1.79407 0 9 -1.79407 1
gene 3 5 9 -1.51254 0 12 -1.51254 1
gene 3 3 15 -2.17972 0 30 -2.17972 1
gene 2 15 8 3.33398 0 31 3.33398 1
gene 2 15 9 0.346969 0 68 0.346969 1
genomeend 3749

/* Organism #4078 Fitness: 264 Error: 0 */
genomestart 4078
trait 1 0.1 0 0 0 0 0 0 0 
trait 2 0.1 0 0.0315714 0 0 0.0923185 0 0 
trait 3 0.3 0 0 0 0 0 0 0 
node 1 2 1 1
node 2 3 1 1
node 3 2 1 1
node 4 1 1 1
node 5 3 1 1
node 6 1 1 1
node 7 1 1 3
node 8 2 0 2
node 9 1 0 0
node 15 1 0 0
gene 3 1 8 1.73147 0 1 1.73147 1
gene 3 2 8 2.21052 0 2 2.21052 1
gene 2 3 8 4.01968 0 3 4.01968 0
gene 3 4 8 -3.71067 0 4 -3.71067 1
gene 2 5 8 2.64939 0 5 2.64939 1
gene 3 6 8 1.6488 0 6 1.6488 1
gene 1 7 8 -1.83116 0 7 -1.83116 1
gene 3 4 9 -1.5705 0 8 -1.5705 1
gene 3 9 8 -1.79407 0 9 -1.79407 1
gene 3 5 9 -1.51254 0 12 -1.51254 1
gene 3 3 15 -2.17972 0 30 -2.17972 1
gene 2 15 8 3.33398 0 31 3.33398 1
gene 2 15 9 0.346969 0 68 0.346969 1
genomeend 4078

/* Organism #4102 Fitness: 264 Error: 0 */
genomestart 4102
trait 1 0.09375 0 0.0334941 0 0 0 0.0336657 0.0130848 
trait 2 0.09375 0 0.0335446 0 0 0.0980884 0 0 
trait 3 0.3 0 0 0 0 0 0 0 
node 1 2 1 1
node 2 2 1 1
node 3 2 1 1
node 4 1 1 1
node 5 3 1 1
node 6 1 1 1
node 7 1 1 3
node 8 2 0 2
node 9 1 0 0
node 15 1 0 0
gene 3 1 8 1.73147 0 1 1.73147 1
gene 3 2 8 2.21052 0 2 2.21052 1
gene 2 3 8 4.01968 0 3 4.01968 0
gene 3 4 8 -3.71067 0 4 -3.71067 1
gene 2 5 8 2.64939 0 5 2.64939 1
gene 3 6 8 1.6488 0 6 1.6488 1
gene 1 7 8 -1.83116 0 7 -1.83116 1
gene 3 4 9 -1.5705 0 8 -1.5705 1
gene 3 9 8 -1.79407 0 9 -1.79407 1
gene 3 5 9 -1.51254 0 12 -1.51254 1
gene 3 3 15 -2.17972 0 30 -2.17972 1
gene 2 15 8 3.33398 0 31 3.33398 1
gene 2 15 9 0.346969 0 68 0.346969 1
genomeend 4102

/* Organism #4177 Fitness: 264 Error: 0 */
genomestart 4177
trait 1 0.1 0 0 0 0 0 0 0 
trait 2 0.1 0 0.0315714 0 0 0.0923185 0 0 
trait 3 0.3 0 0 0 0 0 0 0 
node 1 2 1 1
node 2 3 1 1
node 3 2 1 1
node 4 1 1 1
node 5 3 1 1
node 6 1 1 1
node 7 1 1 3
node 8 2 0 2
node 9 1 0 0
node 15 1 0 0
gene 3 1 8 1.73147 0 1 1.73147 1
gene 3 2 8 2.21052 0 2 2.21052 1
gene 2 3 8 4.01968 0 3 4.01968 0
gene 3 4 8 -3.71067 0 4 -3.71067 1
gene 2 5 8 2.64939 0 5 2.64939 1
gene 3 6 8 1.6488 0 6 1.6488 1
gene 1 7 8 -1.83116 0 7 -1.83116 1
gene 3 4 9 -1.5705 0 8 -1.5705 1
gene 3 9 8 -1.79407 0 9 -1.79407 1
gene 3 5 9 -1.51254 0 12 -1.51254 1
gene 3 3 15 -2.17972 0 30 -2.17972 1
gene 2 15 8 3.33398 0 31 3.33398 1
gene 2 15 9 0.346969 0 68 0.346969 1
genomeend 4177

/* Species #30 : (Size 8) (AF 0) (Age 1)  */


/* Organism #2817 Fitness: 107 Error: 0 */
genomestart 2817
trait 1 0.1 0 0 0 0 0 0 0 
trait 2 0.2 0 0 0 0 0 0 0 
trait 3 0.3 0 0 0 0 0 0 0 
node 1 2 1 1
node 2 3 1 1
node 3 2 1 1
node 4 1 1 1
node 5 3 1 1
node 6 3 1 1
node 7 1 1 3
node 8 2 0 2
node 9 1 0 0
node 14 1 0 0
gene 3 1 8 0.838954 0 1 0.838954 1
gene 3 2 8 4.89128 0 2 4.89128 1
gene 2 3 8 5.49078 0 3 5.49078 1
gene 3 4 8 -2.24761 0 4 -2.24761 1
gene 2 5 8 2.40936 0 5 2.40936 1
gene 3 6 8 4.78501 0 6 4.78501 1
gene 1 7 8 2.86605 0 7 2.86605 1
gene 3 4 9 0.341792 0 8 0.341792 0
gene 3 9 8 -5.29649 0 9 -5.29649 1
gene 3 5 9 -5.19117 0 12 -5.19117 1
gene 3 4 14 2.68113 0 27 2.68113 1
gene 3 14 9 2.41447 0 28 2.41447 1
gene 1 14 8 -1.10302 0 40 -1.10302 1
genomeend 2817

/* Organism #3675 Fitness: 94 Error: 0 */
genomestart 3675
trait 1 0.1 0 0 0 0 0 0 0 
trait 2 0.2 0 0 0 0 0 0 0 
trait 3 0.3 0 0 0 0 0 0 0 
node 1 2 1 1
node 2 3 1 1
node 3 2 1 1
node 4 1 1 1
node 5 3 1 1
node 6 3 1 1
node 7 1 1 3
node 8 2 0 2
node 9 1 0 0
node 14 1 0 0
gene 3 1 8 -0.165983 0 1 -0.165983 1
gene 3 2 8 2.51408 0 2 2.51408 1
gene 2 3 8 2.46348 0 3 2.46348 1
gene 3 4 8 -2.09532 0 4 -2.09532 1
gene 2 5 8 2.33642 0 5 2.33642 1
gene 3 6 8 5.17935 0 6 5.17935 1
gene 1 7 8 3.58282 0 7 3.58282 1
gene 3 4 9 -0.0667287 0 8 -0.0667287 0
gene 3 9 8 -6.26331 0 9 -6.26331 1
gene 3 5 9 -5.50856 0 12 -5.50856 1
gene 3 4 14 3.66119 0 27 3.66119 1
gene 3 14 9 1.79685 0 28 1.79685 1
gene 1 14 8 -1.10302 0 40 -1.10302 1
genomeend 3675

/* Organism #3182 Fitness: 93 Error: 0 */
genomestart 3182
trait 1 0.1 0 0 0 0 0 0 0 
trait 2 0.2 0 0 0 0 0 0 0 
trait 3 0.3 0 0 0 0 0 0 0 
node 1 2 1 1
node 2 3 1 1
node 3 2 1 1
node 4 1 1 1
node 5 3 1 1
node 6 3 1 1
node 7 1 1 3
node 8 2 0 2
node 9 1 0 0
node 14 1 0 0
gene 3 1 8 -1.17092 0 1 -1.17092 1
gene 3 2 8 0.136876 0 2 0.136876 1
gene 2 3 8 -0.563829 0 3 -0.563829 1
gene 3 4 8 -1.94304 0 4 -1.94304 1
gene 2 5 8 2.26348 0 5 2.26348 1
gene 3 6 8 5.57369 0 6 5.57369 1
gene 1 7 8 4.29958 0 7 4.29958 1
gene 3 4 9 -0.475249 0 8 -0.475249 0
gene 3 9 8 -7.23014 0 9 -7.23014 1
gene 3 5 9 -5.82595 0 12 -5.82595 1
gene 3 4 14 4.64125 0 27 4.64125 1
gene 3 14 9 1.17924 0 28 1.17924 1
gene 1 14 8 -1.10302 0 40 -1.10302 1
genomeend 3182

/* Organism #3330 Fitness: 93 Error: 0 */
genomestart 3330
trait 1 0.1 0 0 0 0 0 0 0 
trait 2 0.2 0 0 0 0 0 0 0 
trait 3 0.3 0 0 0 0 0 0 0 
node 1 2 1 1
node 2 3 1 1
node 3 2 1 1
node 4 1 1 1
node 5 3 1 1
node 6 3 1 1
node 7 1 1 3
node 8 2 0 2
node 9 1 0 0
node 14 1 0 0
gene 3 1 8 -1.17092 0 1 -1.17092 1
gene 3 2 8 0.136876 0 2 0.136876 1
gene 2 3 8 -0.563829 0 3 -0.563829 1
gene 3 4 8 -1.94304 0 4 -1.94304 1
gene 2 5 8 2.26348 0 5 2.26348 1
gene 3 6 8 5.57369 0 6 5.57369 1
gene 1 7 8 4.29958 0 7 4.29958 1
gene 3 4 9 -0.475249 0 8 -0.475249 0
gene 3 9 8 -7.23014 0 9 -7.23014 1
gene 3 5 9 -5.82595 0 12 -5.82595 1
gene 3 4 14 4.64125 0 27 4.64125 1
gene 3 14 9 1.17924 0 28 1.17924 1
gene 1 14 8 -1.10302 0 40 -1.10302 1
genomeend 3330

/* Organism #3341 Fitness: 93 Error: 0 */
genomestart 3341
trait 1 0.1 0 0 0 0 0 0 0 
trait 2 0.2 0 0 0 0 0 0 0 
trait 3 0.3 0 0 0 0 0 0 0 
node 1 2 1 1
node 2 3 1 1
node 3 2 1 1
node 4 1 1 1
node 5 3 1 1
node 6 3 1 1
node 7 1 1 3
node 8 2 0 2
node 9 1 0 0
node 14 1 0 0
gene 3 1 8 -1.17092 0 1 -1.17092 1
gene 3 2 8 0.136876 0 2 0.136876 1
gene 2 3 8 -0.563829 0 3 -0.563829 1
gene 3 4 8 -1.94304 0 4 -1.94304 1
gene 2 5 8 2.26348 0 5 2.26348 1
gene 3 6 8 5.57369 0 6 5.57369 1
gene 1 7 8 4.29958 0 7 4.29958 1
gene 3 4 9 -0.475249 0 8 -0.475249 0
gene 3 9 8 -7.23014 0 9 -7.23014 1
gene 3 5 9 -5.82595 0 12 -5.82595 1
gene 1 3 9 0.101382 0 26 0 1
gene 3 4 14 4.64125 0 27 4.64125 1
gene 3 14 9 1.17924 0 28 1.17924 1
gene 1 14 8 -1.10302 0 40 -1.10302 1
genomeend 3341

/* Organism #3512 Fitness: 93 Error: 0 */
genomestart 3512
trait 1 0.1 0 0 0 0 0 0 0 
trait 2 0.2 0 0 0 0 0 0 0 
trait 3 0.3 0 0 0 0 0 0 0 
node 1 2 1 1
node 2 3 1 1
node 3 2 1 1
node 4 1 1 1
node 5 3 1 1
node 6 3 1 1
node 7 1 1 3
node 8 2 0 2
node 9 1 0 0
node 14 1 0 0
gene 3 1 8 -1.17092 0 1 -1.17092 1
gene 3 2 8 0.136876 0 2 0.136876 1
gene 2 3 8 -0.563829 0 3 -0.563829 1
gene 3 4 8 -1.94304 0 4 -1.94304 1
gene 2 5 8 2.26348 0 5 2.26348 1
gene 3 6 8 5.57369 0 6 5.57369 1
gene 1 7 8 4.29958 0 7 4.29958 1
gene 3 4 9 -0.475249 0 8 -0.475249 0
gene 3 9 8 -7.23014 0 9 -7.23014 1
gene 3 5 9 -5.82595 0 12 -5.82595 1
gene 3 4 14 4.64125 0 27 4.64125 1
gene 3 14 9 1.17924 0 28 1.17924 1
gene 1 14 8 -1.10302 0 40 -1.10302 1
genomeend 3512

/* Organism #3128 Fitness: 89 Error: 0 */
genomestart 3128
trait 1 0.1 0 0 0 0 0 0 0 
trait 2 0.2 0 0 0 0 0 0 0 
trait 3 0.3 0 0 0 0 0 0 0 
node 1 2 1 1
node 2 3 1 1
node 3 2 1 1
node 4 1 1 1
node 5 3 1 1
node 6 3 1 1
node 7 1 1 3
node 8 2 0 2
node 9 1 0 0
node 14 1 0 0
gene 3 1 8 0.838954 0 1 0.838954 1
gene 3 2 8 4.89128 0 2 4.89128 1
gene 2 3 8 5.49078 0 3 5.49078 1
gene 3 4 8 0.206458 0 4 0.206458 1
gene 2 5 8 3.15073 0 5 3.15073 1
gene 3 6 8 4.78501 0 6 4.78501 1
gene 1 7 8 2.86605 0 7 2.86605 1
gene 3 4 9 0.341792 0 8 0.341792 0
gene 3 9 8 -5.29649 0 9 -5.29649 1
gene 3 5 9 -4.83494 0 12 -4.83494 1
gene 3 4 14 4.64125 0 27 4.64125 1
gene 3 14 9 2.41447 0 28 2.41447 1
gene 1 14 8 -1.10302 0 40 -1.10302 1
genomeend 3128

/* Organism #3008 Fitness: 85 Error: 0 */
genomestart 3008
trait 1 0.1 0 0 0 0 0 0 0 
trait 2 0.2 0 0 0 0 0 0 0 
trait 3 0.3 0 0 0 0 0 0 0 
node 1 2 1 1
node 2 3 1 1
node 3 2 1 1
node 4 1 1 1
node 5 3 1 1
node 6 3 1 1
node 7 1 1 3
node 8 2 0 2
node 9 1 0 0
node 14 1 0 0
gene 3 1 8 -4.66796 0 1 -4.66796 1
gene 3 2 8 5.60701 0 2 5.60701 1
gene 2 3 8 5.32827 0 3 5.32827 1
gene 3 4 8 0.206458 0 4 0.206458 1
gene 2 5 8 3.15073 0 5 3.15073 1
gene 3 6 8 6.05359 0 6 6.05359 1
gene 1 7 8 0.418851 0 7 0.418851 1
gene 3 4 9 2.15413 0 8 2.15413 0
gene 3 9 8 -5.29649 0 9 -5.29649 1
gene 3 5 9 -4.83494 0 12 -4.83494 1
gene 3 4 14 4.64125 0 27 4.64125 1
gene 3 14 9 2.41447 0 28 2.41447 1
gene 1 14 8 0.629749 0 40 0.629749 1
genomeend 3008

/* Species #37 : (Size 41) (AF 0) (Age 1)  */


/* Organism #4266 Fitness: 99072 Error: 0 */
genomestart 4266
trait 1 0.1 0 0 0 0 0 0 0 
trait 2 0.432749 0.396741 0.264718 0 0.200919 0 0 0.0126804 
trait 3 0.475 0 0 0 0 0 0 0.0028077 
node 1 2 1 1
node 2 1 1 1
node 3 2 1 1
node 4 2 1 1
node 5 2 1 1
node 6 1 1 1
node 7 2 1 3
node 8 2 0 2
node 9 1 0 0
node 11 1 0 0
gene 3 1 8 -5.01179 0 1 -5.01179 1
gene 1 2 8 1.69774 0 2 1.69774 1
gene 1 3 8 -8 0 3 -8 1
gene 2 4 8 7.40143 0 4 7.40143 0
gene 3 5 8 7.42093 0 5 7.42093 1
gene 2 6 8 2.29091 0 6 2.29091 1
gene 1 7 8 3.7705 0 7 3.7705 1
gene 2 4 9 3.77573 0 8 3.77573 1
gene 3 9 8 -4.86236 0 9 -4.86236 1
gene 1 2 11 -4.71099 0 13 -4.71099 1
gene 1 11 8 1.20746 0 14 1.20746 1
gene 1 3 9 2.11371 0 26 2.11371 1
gene 2 1 9 -1.50884 0 51 -1.50884 1
genomeend 4266

/* Organism #4264 Fitness: 50767 Error: 0 */
genomestart 4264
trait 1 0.1 0 0 0 0 0 0 0 
trait 2 0.432749 0.396741 0.264718 0 0.200919 0 0 0.0126804 
trait 3 0.475 0 0 0 0 0 0 0.0028077 
node 1 2 1 1
node 2 1 1 1
node 3 2 1 1
node 4 2 1 1
node 5 2 1 1
node 6 1 1 1
node 7 2 1 3
node 8 2 0 2
node 9 1 0 0
node 11 1 0 0
gene 3 1 8 -5.42241 0 1 -5.42241 1
gene 1 2 8 1.69774 0 2 1.69774 1
gene 1 3 8 -8 0 3 -8 1
gene 2 4 8 7.40143 0 4 7.40143 0
gene 3 5 8 7.99228 0 5 7.99228 1
gene 2 6 8 2.29091 0 6 2.29091 1
gene 1 7 8 2.82534 0 7 2.82534 1
gene 2 4 9 4.48838 0 8 4.48838 1
gene 3 9 8 -4.59357 0 9 -4.59357 1
gene 1 2 11 -4.71099 0 13 -4.71099 1
gene 1 11 8 1.50956 0 14 1.50956 1
gene 1 3 9 2.11371 0 26 2.11371 1
gene 2 1 9 -1.50884 0 51 -1.50884 1
genomeend 4264

/* Organism #4181 Fitness: 50767 Error: 0 */
genomestart 4181
trait 1 0.1 0 0 0 0 0 0 0 
trait 2 0.432749 0.396741 0.264718 0 0.200919 0 0 0.0126804 
trait 3 0.475 0 0 0 0 0 0 0.0028077 
node 1 2 1 1
node 2 1 1 1
node 3 2 1 1
node 4 2 1 1
node 5 2 1 1
node 6 1 1 1
node 7 2 1 3
node 8 2 0 2
node 9 1 0 0
node 11 1 0 0
gene 3 1 8 -5.42241 0 1 -5.42241 1
gene 1 2 8 1.69774 0 2 1.69774 1
gene 1 3 8 -8 0 3 -8 1
gene 2 4 8 7.40143 0 4 7.40143 0
gene 3 5 8 7.99228 0 5 7.99228 1
gene 2 6 8 2.29091 0 6 2.29091 1
gene 1 7 8 2.82534 0 7 2.82534 1
gene 2 4 9 4.48838 0 8 4.48838 1
gene 3 9 8 -4.59357 0 9 -4.59357 1
gene 1 2 11 -4.71099 0 13 -4.71099 1
gene 1 11 8 1.50956 0 14 1.50956 1
gene 1 3 9 2.11371 0 26 2.11371 1
gene 2 1 9 -1.50884 0 51 -1.50884 1
genomeend 4181

/* Organism #4293 Fitness: 47207 Error: 0 */
genomestart 4293
trait 1 0.1 0 0 0 0 0 0 0 
trait 2 0.432749 0.396741 0.264718 0 0.200919 0 0 0.0126804 
trait 3 0.475 0 0 0 0 0 0 0.0028077 
node 1 2 1 1
node 2 1 1 1
node 3 2 1 1
node 4 2 1 1
node 5 2 1 1
node 6 1 1 1
node 7 2 1 3
node 8 2 0 2
node 9 1 0 0
node 11 1 0 0
gene 3 1 8 -5.01179 0 1 -5.01179 1
gene 1 2 8 1.23817 0 2 1.23817 1
gene 1 3 8 -8 0 3 -8 1
gene 2 4 8 6.95591 0 4 6.95591 0
gene 3 5 8 7.42093 0 5 7.42093 1
gene 2 6 8 2.26407 0 6 2.26407 1
gene 1 7 8 3.7705 0 7 3.7705 1
gene 2 4 9 3.77573 0 8 3.77573 1
gene 3 9 8 -4.86236 0 9 -4.86236 1
gene 1 2 11 -4.85118 0 13 -4.85118 1
gene 1 11 8 1.20746 0 14 1.20746 1
gene 1 3 9 1.61063 0 26 1.59796 1
gene 2 1 9 -1.50884 0 51 -1.50884 1
genomeend 4293

/* Organism #4237 Fitness: 37520 Error: 0 */
genomestart 4237
trait 1 0.1 0 0 0 0 0 0 0 
trait 2 0.432749 0.396741 0.264718 0 0.200919 0 0 0.0126804 
trait 3 0.475 0 0 0 0 0 0 0.0028077 
node 1 2 1 1
node 2 1 1 1
node 3 2 1 1
node 4 2 1 1
node 5 2 1 1
node 6 1 1 1
node 7 2 1 3
node 8 2 0 2
node 9 1 0 0
node 11 1 0 0
gene 3 1 8 -5.01179 0 1 -5.01179 1
gene 1 2 8 0.778603 0 2 0.778603 1
gene 1 3 8 -8 0 3 -8 1
gene 2 4 8 6.5104 0 4 6.5104 0
gene 3 5 8 7.42093 0 5 7.42093 1
gene 2 6 8 2.23724 0 6 2.23724 1
gene 1 7 8 3.7705 0 7 3.7705 1
gene 2 4 9 3.77573 0 8 3.77573 1
gene 3 9 8 -4.86236 0 9 -4.86236 1
gene 1 2 11 -4.99138 0 13 -4.99138 1
gene 1 11 8 1.20746 0 14 1.20746 1
gene 1 3 9 1.10755 0 26 1.0822 1
gene 2 1 9 -1.50884 0 51 -1.50884 1
gene 2 4 11 -0.418958 0 54 0 1
genomeend 4237

/* Organism #4298 Fitness: 26996 Error: 0 */
genomestart 4298
trait 1 0.1 0 0 0 0 0 0 0 
trait 2 0.432749 0.396741 0.264718 0 0.200919 0 0 0.0126804 
trait 3 0.475 0 0 0 0 0 0 0.0028077 
node 1 2 1 1
node 2 1 1 1
node 3 2 1 1
node 4 2 1 1
node 5 2 1 1
node 6 1 1 1
node 7 2 1 3
node 8 2 0 2
node 9 1 0 0
node 11 1 0 0
gene 3 1 8 -5.01179 0 1 -5.01179 1
gene 1 2 8 0.778603 0 2 0.778603 1
gene 1 3 8 -8 0 3 -8 1
gene 2 4 8 6.5104 0 4 6.5104 0
gene 3 5 8 7.42093 0 5 7.42093 1
gene 2 6 8 2.23724 0 6 2.23724 1
gene 1 7 8 3.7705 0 7 3.7705 1
gene 2 4 9 3.77573 0 8 3.77573 1
gene 3 9 8 -4.86236 0 9 -4.86236 1
gene 1 2 11 -4.99138 0 13 -4.99138 1
gene 1 11 8 1.20746 0 14 1.20746 1
gene 1 3 9 1.10755 0 26 1.0822 1
gene 2 1 9 -1.50884 0 51 -1.50884 1
genomeend 4298

/* Organism #4200 Fitness: 26996 Error: 0 */
genomestart 4200
trait 1 0.1 0 0 0 0 0 0 0 
trait 2 0.432749 0.396741 0.264718 0 0.200919 0 0 0.0126804 
trait 3 0.475 0 0 0 0 0 0 0.0028077 
node 1 2 1 1
node 2 1 1 1
node 3 2 1 1
node 4 2 1 1
node 5 2 1 1
node 6 1 1 1
node 7 2 1 3
node 8 2 0 2
node 9 1 0 0
node 11 1 0 0
gene 3 1 8 -5.01179 0 1 -5.01179 1
gene 1 2 8 0.778603 0 2 0.778603 1
gene 1 3 8 -8 0 3 -8 1
gene 2 4 8 6.5104 0 4 6.5104 0
gene 3 5 8 7.42093 0 5 7.42093 1
gene 2 6 8 2.23724 0 6 2.23724 1
gene 1 7 8 3.7705 0 7 3.7705 1
gene 2 4 9 3.77573 0 8 3.77573 1
gene 3 9 8 -4.86236 0 9 -4.86236 1
gene 1 2 11 -4.99138 0 13 -4.99138 1
gene 1 11 8 1.20746 0 14 1.20746 1
gene 1 3 9 1.10755 0 26 1.0822 1
gene 2 1 9 -1.50884 0 51 -1.50884 1
genomeend 4200

/* Organism #4263 Fitness: 26996 Error: 0 */
genomestart 4263
trait 1 0.1 0 0 0 0 0 0 0 
trait 2 0.432749 0.396741 0.264718 0 0.200919 0 0 0.0126804 
trait 3 0.475 0 0 0 0 0 0 0.0028077 
node 1 2 1 1
node 2 1 1 1
node 3 2 1 1
node 4 2 1 1
node 5 2 1 1
node 6 1 1 1
node 7 2 1 3
node 8 2 0 2
node 9 1 0 0
node 11 1 0 0
gene 3 1 8 -5.01179 0 1 -5.01179 1
gene 1 2 8 0.778603 0 2 0.778603 1
gene 1 3 8 -8 0 3 -8 1
gene 2 4 8 6.5104 0 4 6.5104 0
gene 3 5 8 7.42093 0 5 7.42093 1
gene 2 6 8 2.23724 0 6 2.23724 1
gene 1 7 8 3.7705 0 7 3.7705 1
gene 2 4 9 3.77573 0 8 3.77573 1
gene 3 9 8 -4.86236 0 9 -4.86236 1
gene 1 2 11 -4.99138 0 13 -4.99138 1
gene 1 11 8 1.20746 0 14 1.20746 1
gene 1 3 9 1.10755 0 26 1.0822 1
gene 2 1 9 -1.50884 0 51 -1.50884 1
genomeend 4263

/* Organism #4241 Fitness: 26996 Error: 0 */
genomestart 4241
trait 1 0.1 0 0 0 0 0 0 0 
trait 2 0.432749 0.396741 0.264718 0 0.200919 0 0 0.0126804 
trait 3 0.475 0 0 0 0 0 0 0.0028077 
node 1 2 1 1
node 2 1 1 1
node 3 2 1 1
node 4 2 1 1
node 5 2 1 1
node 6 1 1 1
node 7 2 1 3
node 8 2 0 2
node 9 1 0 0
node 11 1 0 0
gene 3 1 8 -5.01179 0 1 -5.01179 1
gene 1 2 8 0.778603 0 2 0.778603 1
gene 1 3 8 -8 0 3 -8 1
gene 2 4 8 6.5104 0 4 6.5104 0
gene 3 5 8 7.42093 0 5 7.42093 1
gene 2 6 8 2.23724 0 6 2.23724 1
gene 1 7 8 3.7705 0 7 3.7705 1
gene 2 4 9 3.77573 0 8 3.77573 1
gene 3 9 8 -4.86236 0 9 -4.86236 1
gene 1 2 11 -4.99138 0 13 -4.99138 1
gene 1 11 8 1.20746 0 14 1.20746 1
gene 1 3 9 1.10755 0 26 1.0822 1
gene 2 1 9 -1.50884 0 51 -1.50884 1
genomeend 4241

/* Organism #4182 Fitness: 26996 Error: 0 */
genomestart 4182
trait 1 0.1 0 0 0 0 0 0 0 
trait 2 0.432749 0.396741 0.264718 0 0.200919 0 0 0.0126804 
trait 3 0.475 0 0 0 0 0 0 0.0028077 
node 1 2 1 1
node 2 1 1 1
node 3 2 1 1
node 4 2 1 1
node 5 2 1 1
node 6 1 1 1
node 7 2 1 3
node 8 2 0 2
node 9 1 0 0
node 11 1 0 0
gene 3 1 8 -5.01179 0 1 -5.01179 1
gene 1 2 8 0.778603 0 2 0.778603 1
gene 1 3 8 -8 0 3 -8 1
gene 2 4 8 6.5104 0 4 6.5104 0
gene 3 5 8 7.42093 0 5 7.42093 1
gene 2 6 8 2.23724 0 6 2.23724 1
gene 1 7 8 3.7705 0 7 3.7705 1
gene 2 4 9 3.77573 0 8 3.77573 1
gene 3 9 8 -4.86236 0 9 -4.86236 1
gene 1 2 11 -4.99138 0 13 -4.99138 1
gene 1 11 8 1.20746 0 14 1.20746 1
gene 1 3 9 1.10755 0 26 1.0822 1
gene 2 1 9 -1.50884 0 51 -1.50884 1
genomeend 4182

/* Organism #4251 Fitness: 26996 Error: 0 */
genomestart 4251
trait 1 0.1 0 0 0 0 0 0 0 
trait 2 0.432749 0.396741 0.264718 0 0.200919 0 0 0.0126804 
trait 3 0.475 0 0 0 0 0 0 0.0028077 
node 1 2 1 1
node 2 1 1 1
node 3 2 1 1
node 4 2 1 1
node 5 2 1 1
node 6 1 1 1
node 7 2 1 3
node 8 2 0 2
node 9 1 0 0
node 11 1 0 0
gene 3 1 8 -5.01179 0 1 -5.01179 1
gene 1 2 8 0.778603 0 2 0.778603 1
gene 1 3 8 -8 0 3 -8 1
gene 2 4 8 6.5104 0 4 6.5104 0
gene 3 5 8 7.42093 0 5 7.42093 1
gene 2 6 8 2.23724 0 6 2.23724 1
gene 1 7 8 3.7705 0 7 3.7705 1
gene 2 4 9 3.77573 0 8 3.77573 1
gene 3 9 8 -4.86236 0 9 -4.86236 1
gene 1 2 11 -4.99138 0 13 -4.99138 1
gene 1 11 8 1.20746 0 14 1.20746 1
gene 1 3 9 1.10755 0 26 1.0822 1
gene 2 1 9 -1.50884 0 51 -1.50884 1
genomeend 4251

/* Organism #4295 Fitness: 15252 Error: 0 */
genomestart 4295
trait 1 0.1 0 0 0 0 0 0 0 
trait 2 0.432749 0.396741 0.264718 0 0.200919 0 0 0.0126804 
trait 3 0.475 0 0 0 0 0 0 0.0028077 
node 1 2 1 1
node 2 1 1 1
node 3 2 1 1
node 4 2 1 1
node 5 2 1 1
node 6 1 1 1
node 7 2 1 3
node 8 2 0 2
node 9 1 0 0
node 11 1 0 0
gene 3 1 8 -5.01179 0 1 -5.01179 1
gene 1 2 8 1.69774 0 2 1.69774 1
gene 1 3 8 -8 0 3 -8 1
gene 2 4 8 7.40143 0 4 7.40143 0
gene 3 5 8 7.42093 0 5 7.42093 1
gene 2 6 8 2.23724 0 6 2.23724 1
gene 1 7 8 3.7705 0 7 3.7705 1
gene 2 4 9 3.77573 0 8 3.77573 1
gene 3 9 8 -4.86236 0 9 -4.86236 1
gene 1 2 11 -4.71099 0 13 -4.71099 1
gene 1 11 8 1.20746 0 14 1.20746 1
gene 1 3 9 2.11371 0 26 2.11371 1
gene 2 1 9 -1.50884 0 51 -1.50884 1
genomeend 4295

/* Organism #4280 Fitness: 6817 Error: 0 */
genomestart 4280
trait 1 0.1 0 0 0 0 0 0 0 
trait 2 0.432749 0.396741 0.264718 0 0.200919 0 0 0.0126804 
trait 3 0.475 0 0 0 0 0 0 0.0028077 
node 1 2 1 1
node 2 1 1 1
node 3 2 1 1
node 4 2 1 1
node 5 2 1 1
node 6 1 1 1
node 7 2 1 3
node 8 2 0 2
node 9 1 0 0
node 11 1 0 0
gene 3 1 8 -5.01179 0 1 -5.01179 1
gene 1 2 8 0.778603 0 2 0.778603 1
gene 1 3 8 -8 0 3 -8 1
gene 2 4 8 6.5104 0 4 6.5104 0
gene 3 5 8 7.42093 0 5 7.42093 1
gene 2 6 8 2.23724 0 6 2.23724 1
gene 1 7 8 3.7705 0 7 3.7705 1
gene 2 4 9 3.77573 0 8 3.77573 1
gene 3 9 8 -4.86236 0 9 -4.86236 1
gene 1 2 11 -4.99138 0 13 -4.99138 1
gene 1 11 8 1.20746 0 14 1.20746 1
gene 1 3 9 1.10755 0 26 1.0822 1
gene 2 1 9 -1.50884 0 51 -1.50884 1
gene 3 1 11 0.887387 0 55 0 1
genomeend 4280

/* Organism #4270 Fitness: 2179 Error: 0 */
genomestart 4270
trait 1 0.1 0 0 0 0 0 0 0 
trait 2 0.432749 0.396741 0.264718 0 0.200919 0 0 0.0126804 
trait 3 0.475 0 0 0 0 0 0 0.0028077 
node 1 2 1 1
node 2 1 1 1
node 3 2 1 1
node 4 2 1 1
node 5 2 1 1
node 6 1 1 1
node 7 2 1 3
node 8 2 0 2
node 9 1 0 0
node 11 1 0 0
gene 3 1 8 -5.01179 0 1 -5.01179 1
gene 1 2 8 1.69774 0 2 1.69774 1
gene 1 3 8 -8 0 3 -8 1
gene 2 4 8 7.40143 0 4 7.40143 0
gene 3 5 8 7.99228 0 5 7.99228 1
gene 2 6 8 2.29091 0 6 2.29091 1
gene 1 7 8 2.82534 0 7 2.82534 1
gene 2 4 9 3.77573 0 8 3.77573 1
gene 3 9 8 -4.59357 0 9 -4.59357 1
gene 1 2 11 -4.99138 0 13 -4.99138 1
gene 1 11 8 1.50956 0 14 1.50956 1
gene 1 3 9 2.11371 0 26 2.11371 1
gene 2 1 9 -1.50884 0 51 -1.50884 1
genomeend 4270

/* Organism #4256 Fitness: 1236 Error: 0 */
genomestart 4256
trait 1 0.1 0 0 0 0 0 0 0 
trait 2 0.432749 0.396741 0.264718 0 0.200919 0 0 0.0126804 
trait 3 0.475 0 0 0 0 0 0 0.0028077 
node 1 2 1 1
node 2 1 1 1
node 3 2 1 1
node 4 2 1 1
node 5 2 1 1
node 6 1 1 1
node 7 2 1 3
node 8 2 0 2
node 9 1 0 0
node 11 1 0 0
gene 3 1 8 -5.01179 0 1 -5.01179 1
gene 1 2 8 -0.140538 0 2 -0.140538 1
gene 1 3 8 -8 0 3 -8 1
gene 2 4 8 5.61937 0 4 5.61937 0
gene 3 5 8 6.84959 0 5 6.84959 1
gene 2 6 8 2.23724 0 6 2.23724 1
gene 1 7 8 4.71566 0 7 4.71566 1
gene 2 4 9 3.06309 0 8 3.06309 1
gene 3 9 8 -5.13115 0 9 -5.13115 1
gene 1 2 11 -4.99138 0 13 -4.99138 1
gene 1 11 8 0.90537 0 14 0.90537 1
gene 1 3 9 1.10755 0 26 1.0822 1
gene 2 1 9 -1.50884 0 51 -1.50884 1
genomeend 4256

/* Organism #3975 Fitness: 1188 Error: 0 */
genomestart 3975
trait 1 0.1 0 0 0 0 0 0 0 
trait 2 0.432749 0.396741 0.264718 0 0.200919 0 0 0.0126804 
trait 3 0.475 0 0 0 0 0 0 0.0028077 
node 1 2 1 1
node 2 1 1 1
node 3 2 1 1
node 4 2 1 1
node 5 2 1 1
node 6 1 1 1
node 7 2 1 3
node 8 2 0 2
node 9 1 0 0
node 11 1 0 0
gene 3 1 8 -4.60116 0 1 -4.60116 1
gene 1 2 8 -0.140538 0 2 -0.140538 1
gene 1 3 8 -8 0 3 -8 1
gene 2 4 8 5.61937 0 4 5.61937 0
gene 3 5 8 6.84959 0 5 6.84959 1
gene 2 6 8 2.18356 0 6 2.18356 1
gene 1 7 8 4.71566 0 7 4.71566 1
gene 2 4 9 3.06309 0 8 3.06309 1
gene 3 9 8 -5.13115 0 9 -5.13115 1
gene 1 2 11 -5.27177 0 13 -5.27177 1
gene 1 11 8 0.90537 0 14 0.90537 1
gene 1 3 9 0.101382 0 26 0.0506912 1
gene 2 1 9 -1.50884 0 51 -1.50884 1
genomeend 3975

/* Organism #4116 Fitness: 1188 Error: 0 */
genomestart 4116
trait 1 0.1 0 0 0 0 0 0 0 
trait 2 0.432749 0.396741 0.264718 0 0.200919 0 0 0.0126804 
trait 3 0.475 0 0 0 0 0 0 0.0028077 
node 1 2 1 1
node 2 1 1 1
node 3 2 1 1
node 4 2 1 1
node 5 2 1 1
node 6 1 1 1
node 7 2 1 3
node 8 2 0 2
node 9 1 0 0
node 11 1 0 0
gene 3 1 8 -4.60116 0 1 -4.60116 1
gene 1 2 8 -0.140538 0 2 -0.140538 1
gene 1 3 8 -8 0 3 -8 1
gene 2 4 8 5.61937 0 4 5.61937 0
gene 3 5 8 6.84959 0 5 6.84959 1
gene 2 6 8 2.18356 0 6 2.18356 1
gene 1 7 8 4.71566 0 7 4.71566 1
gene 2 4 9 3.06309 0 8 3.06309 1
gene 3 9 8 -5.13115 0 9 -5.13115 1
gene 1 2 11 -5.27177 0 13 -5.27177 1
gene 1 11 8 0.90537 0 14 0.90537 1
gene 1 3 9 0.101382 0 26 0.0506912 1
gene 2 1 9 -1.50884 0 51 -1.50884 1
genomeend 4116

/* Organism #3880 Fitness: 1188 Error: 0 */
genomestart 3880
trait 1 0.1 0 0 0 0 0 0 0 
trait 2 0.432749 0.396741 0.264718 0 0.200919 0 0 0.0126804 
trait 3 0.475 0 0 0 0 0 0 0.0028077 
node 1 2 1 1
node 2 1 1 1
node 3 2 1 1
node 4 2 1 1
node 5 2 1 1
node 6 1 1 1
node 7 2 1 3
node 8 2 0 2
node 9 1 0 0
node 11 1 0 0
gene 3 1 8 -4.60116 0 1 -4.60116 1
gene 1 2 8 -0.140538 0 2 -0.140538 1
gene 1 3 8 -8 0 3 -8 1
gene 2 4 8 5.61937 0 4 5.61937 0
gene 3 5 8 6.84959 0 5 6.84959 1
gene 2 6 8 2.18356 0 6 2.18356 1
gene 1 7 8 4.71566 0 7 4.71566 1
gene 2 4 9 3.06309 0 8 3.06309 1
gene 3 9 8 -5.13115 0 9 -5.13115 1
gene 1 2 11 -5.27177 0 13 -5.27177 1
gene 1 11 8 0.90537 0 14 0.90537 1
gene 1 3 9 0.101382 0 26 0.0506912 1
gene 2 1 9 -1.50884 0 51 -1.50884 1
genomeend 3880

/* Organism #4202 Fitness: 1188 Error: 0 */
genomestart 4202
trait 1 0.1 0 0 0 0 0 0 0 
trait 2 0.432749 0.396741 0.264718 0 0.200919 0 0 0.0126804 
trait 3 0.475 0 0 0 0 0 0 0.0028077 
node 1 2 1 1
node 2 1 1 1
node 3 2 1 1
node 4 2 1 1
node 5 2 1 1
node 6 1 1 1
node 7 2 1 3
node 8 2 0 2
node 9 1 0 0
node 11 1 0 0
gene 3 1 8 -4.60116 0 1 -4.60116 1
gene 1 2 8 -0.140538 0 2 -0.140538 1
gene 1 3 8 -8 0 3 -8 1
gene 2 4 8 5.61937 0 4 5.61937 0
gene 3 5 8 6.84959 0 5 6.84959 1
gene 2 6 8 2.18356 0 6 2.18356 1
gene 1 7 8 4.71566 0 7 4.71566 1
gene 2 4 9 3.06309 0 8 3.06309 1
gene 3 9 8 -5.13115 0 9 -5.13115 1
gene 1 2 11 -5.27177 0 13 -5.27177 1
gene 1 11 8 0.90537 0 14 0.90537 1
gene 1 3 9 0.101382 0 26 0.0506912 1
gene 2 1 9 -1.50884 0 51 -1.50884 1
genomeend 4202

/* Organism #4192 Fitness: 1188 Error: 0 */
genomestart 4192
trait 1 0.1 0 0 0 0 0 0 0 
trait 2 0.432749 0.396741 0.264718 0 0.200919 0 0 0.0126804 
trait 3 0.475 0 0 0 0 0 0 0.0028077 
node 1 2 1 1
node 2 1 1 1
node 3 2 1 1
node 4 2 1 1
node 5 2 1 1
node 6 1 1 1
node 7 2 1 3
node 8 2 0 2
node 9 1 0 0
node 11 1 0 0
gene 3 1 8 -4.60116 0 1 -4.60116 1
gene 1 2 8 -0.140538 0 2 -0.140538 1
gene 1 3 8 -8 0 3 -8 1
gene 2 4 8 5.61937 0 4 5.61937 0
gene 3 5 8 6.84959 0 5 6.84959 1
gene 2 6 8 2.18356 0 6 2.18356 1
gene 1 7 8 4.71566 0 7 4.71566 1
gene 2 4 9 3.06309 0 8 3.06309 1
gene 3 9 8 -5.13115 0 9 -5.13115 1
gene 1 2 11 -5.27177 0 13 -5.27177 1
gene 1 11 8 0.90537 0 14 0.90537 1
gene 1 3 9 0.101382 0 26 0.0506912 1
gene 2 1 9 -1.50884 0 51 -1.50884 1
genomeend 4192

/* Organism #4217 Fitness: 1188 Error: 0 */
genomestart 4217
trait 1 0.1 0 0 0 0 0 0 0 
trait 2 0.432749 0.396741 0.264718 0 0.200919 0 0 0.0126804 
trait 3 0.475 0 0 0 0 0 0 0.0028077 
node 1 2 1 1
node 2 1 1 1
node 3 2 1 1
node 4 2 1 1
node 5 2 1 1
node 6 1 1 1
node 7 2 1 3
node 8 2 0 2
node 9 1 0 0
node 11 1 0 0
gene 3 1 8 -4.60116 0 1 -4.60116 1
gene 1 2 8 -0.140538 0 2 -0.140538 1
gene 1 3 8 -8 0 3 -8 1
gene 2 4 8 5.61937 0 4 5.61937 0
gene 3 5 8 6.84959 0 5 6.84959 1
gene 2 6 8 2.18356 0 6 2.18356 1
gene 1 7 8 4.71566 0 7 4.71566 1
gene 2 4 9 3.06309 0 8 3.06309 1
gene 3 9 8 -5.13115 0 9 -5.13115 1
gene 1 2 11 -5.27177 0 13 -5.27177 1
gene 1 11 8 0.90537 0 14 0.90537 1
gene 1 3 9 0.101382 0 26 0.0506912 1
gene 2 1 9 -1.50884 0 51 -1.50884 1
genomeend 4217

/* Organism #4173 Fitness: 1188 Error: 0 */
genomestart 4173
trait 1 0.1 0 0 0 0 0 0 0 
trait 2 0.432749 0.396741 0.264718 0 0.200919 0 0 0.0126804 
trait 3 0.475 0 0 0 0 0 0 0.0028077 
node 1 2 1 1
node 2 1 1 1
node 3 2 1 1
node 4 2 1 1
node 5 2 1 1
node 6 1 1 1
node 7 2 1 3
node 8 2 0 2
node 9 1 0 0
node 11 1 0 0
gene 3 1 8 -4.60116 0 1 -4.60116 1
gene 1 2 8 -0.140538 0 2 -0.140538 1
gene 1 3 8 -8 0 3 -8 1
gene 2 4 8 5.61937 0 4 5.61937 0
gene 3 5 8 6.84959 0 5 6.84959 1
gene 2 6 8 2.18356 0 6 2.18356 1
gene 1 7 8 4.71566 0 7 4.71566 1
gene 2 4 9 3.06309 0 8 3.06309 1
gene 3 9 8 -5.13115 0 9 -5.13115 1
gene 1 2 11 -5.27177 0 13 -5.27177 1
gene 1 11 8 0.90537 0 14 0.90537 1
gene 1 3 9 0.101382 0 26 0.0506912 1
gene 2 1 9 -1.50884 0 51 -1.50884 1
genomeend 4173

/* Organism #3950 Fitness: 1188 Error: 0 */
genomestart 3950
trait 1 0.1 0 0 0 0 0 0 0 
trait 2 0.432749 0.396741 0.264718 0 0.200919 0 0 0.0126804 
trait 3 0.475 0 0 0 0 0 0 0.0028077 
node 1 2 1 1
node 2 1 1 1
node 3 2 1 1
node 4 2 1 1
node 5 2 1 1
node 6 1 1 1
node 7 2 1 3
node 8 2 0 2
node 9 1 0 0
node 11 1 0 0
gene 3 1 8 -4.60116 0 1 -4.60116 1
gene 1 2 8 -0.140538 0 2 -0.140538 1
gene 1 3 8 -8 0 3 -8 1
gene 2 4 8 5.61937 0 4 5.61937 0
gene 3 5 8 6.84959 0 5 6.84959 1
gene 2 6 8 2.18356 0 6 2.18356 1
gene 1 7 8 4.71566 0 7 4.71566 1
gene 2 4 9 3.06309 0 8 3.06309 1
gene 3 9 8 -5.13115 0 9 -5.13115 1
gene 1 2 11 -5.27177 0 13 -5.27177 1
gene 1 11 8 0.90537 0 14 0.90537 1
gene 1 3 9 0.101382 0 26 0.0506912 1
gene 2 1 9 -1.50884 0 51 -1.50884 1
genomeend 3950

/* Organism #3567 Fitness: 1188 Error: 0 */
genomestart 3567
trait 1 0.1 0 0 0 0 0 0 0 
trait 2 0.432749 0.396741 0.264718 0 0.200919 0 0 0.0126804 
trait 3 0.475 0 0 0 0 0 0 0.0028077 
node 1 2 1 1
node 2 1 1 1
node 3 2 1 1
node 4 2 1 1
node 5 2 1 1
node 6 1 1 1
node 7 2 1 3
node 8 2 0 2
node 9 1 0 0
node 11 1 0 0
gene 3 1 8 -4.60116 0 1 -4.60116 1
gene 1 2 8 -0.140538 0 2 -0.140538 1
gene 1 3 8 -8 0 3 -8 1
gene 2 4 8 5.61937 0 4 5.61937 0
gene 3 5 8 6.84959 0 5 6.84959 1
gene 2 6 8 2.18356 0 6 2.18356 1
gene 1 7 8 4.71566 0 7 4.71566 1
gene 2 4 9 3.06309 0 8 3.06309 1
gene 3 9 8 -5.13115 0 9 -5.13115 1
gene 1 2 11 -5.27177 0 13 -5.27177 1
gene 1 11 8 0.90537 0 14 0.90537 1
gene 1 3 9 0.101382 0 26 0.0506912 1
gene 2 1 9 -1.50884 0 51 -1.50884 1
genomeend 3567

/* Organism #4112 Fitness: 1101 Error: 0 */
genomestart 4112
trait 1 0.1 0 0 0 0 0 0 0 
trait 2 0.432749 0.396741 0.264718 0 0.200919 0 0 0.0126804 
trait 3 0.475 0 0 0 0 0 0 0.0028077 
node 1 2 1 1
node 2 1 1 1
node 3 2 1 1
node 4 2 1 1
node 5 2 1 1
node 6 1 1 1
node 7 2 1 3
node 8 2 0 2
node 9 1 0 0
node 11 1 0 0
gene 3 1 8 -4.04054 0 1 -4.04054 1
gene 1 2 8 -0.140538 0 2 -0.140538 1
gene 1 3 8 -8 0 3 -8 1
gene 2 4 8 5.61937 0 4 5.61937 0
gene 3 5 8 6.84959 0 5 6.84959 1
gene 2 6 8 2.18356 0 6 2.18356 1
gene 1 7 8 4.71566 0 7 4.71566 1
gene 2 4 9 3.01147 0 8 3.01147 1
gene 3 9 8 -5.13115 0 9 -5.13115 1
gene 1 2 11 -5.27177 0 13 -5.27177 1
gene 1 11 8 0.90537 0 14 0.90537 1
gene 1 3 9 0.101382 0 26 0.0506912 1
gene 2 1 9 -1.50884 0 51 -1.50884 1
genomeend 4112

/* Organism #3908 Fitness: 1101 Error: 0 */
genomestart 3908
trait 1 0.1 0 0 0 0 0 0 0 
trait 2 0.432749 0.396741 0.264718 0 0.200919 0 0 0.0126804 
trait 3 0.475 0 0 0 0 0 0 0.0028077 
node 1 2 1 1
node 2 1 1 1
node 3 2 1 1
node 4 2 1 1
node 5 2 1 1
node 6 1 1 1
node 7 2 1 3
node 8 2 0 2
node 9 1 0 0
node 11 1 0 0
gene 3 1 8 -4.04054 0 1 -4.04054 1
gene 1 2 8 -0.140538 0 2 -0.140538 1
gene 1 3 8 -8 0 3 -8 1
gene 2 4 8 5.61937 0 4 5.61937 0
gene 3 5 8 6.84959 0 5 6.84959 1
gene 2 6 8 2.18356 0 6 2.18356 1
gene 1 7 8 4.71566 0 7 4.71566 1
gene 2 4 9 3.01147 0 8 3.01147 1
gene 3 9 8 -5.13115 0 9 -5.13115 1
gene 1 2 11 -5.27177 0 13 -5.27177 1
gene 1 11 8 0.90537 0 14 0.90537 1
gene 1 3 9 0.101382 0 26 0.0506912 1
gene 2 1 9 -1.50884 0 51 -1.50884 1
genomeend 3908

/* Organism #4012 Fitness: 1101 Error: 0 */
genomestart 4012
trait 1 0.1 0 0 0 0 0 0 0 
trait 2 0.432749 0.396741 0.264718 0 0.200919 0 0 0.0126804 
trait 3 0.475 0 0 0 0 0 0 0.0028077 
node 1 2 1 1
node 2 1 1 1
node 3 2 1 1
node 4 2 1 1
node 5 2 1 1
node 6 1 1 1
node 7 2 1 3
node 8 2 0 2
node 9 1 0 0
node 11 1 0 0
gene 3 1 8 -4.04054 0 1 -4.04054 1
gene 1 2 8 -0.140538 0 2 -0.140538 1
gene 1 3 8 -8 0 3 -8 1
gene 2 4 8 5.61937 0 4 5.61937 0
gene 3 5 8 6.84959 0 5 6.84959 1
gene 2 6 8 2.18356 0 6 2.18356 1
gene 1 7 8 4.71566 0 7 4.71566 1
gene 2 4 9 3.01147 0 8 3.01147 1
gene 3 9 8 -5.13115 0 9 -5.13115 1
gene 1 2 11 -5.27177 0 13 -5.27177 1
gene 1 11 8 0.90537 0 14 0.90537 1
gene 1 3 9 0.101382 0 26 0.0506912 1
gene 2 1 9 -1.50884 0 51 -1.50884 1
genomeend 4012

/* Organism #3570 Fitness: 1101 Error: 0 */
genomestart 3570
trait 1 0.1 0 0 0 0 0 0 0 
trait 2 0.432749 0.396741 0.264718 0 0.200919 0 0 0.0126804 
trait 3 0.475 0 0 0 0 0 0 0.0028077 
node 1 2 1 1
node 2 1 1 1
node 3 2 1 1
node 4 2 1 1
node 5 2 1 1
node 6 1 1 1
node 7 2 1 3
node 8 2 0 2
node 9 1 0 0
node 11 1 0 0
gene 3 1 8 -4.04054 0 1 -4.04054 1
gene 1 2 8 -0.140538 0 2 -0.140538 1
gene 1 3 8 -8 0 3 -8 1
gene 2 4 8 5.61937 0 4 5.61937 0
gene 3 5 8 6.84959 0 5 6.84959 1
gene 2 6 8 2.18356 0 6 2.18356 1
gene 1 7 8 4.71566 0 7 4.71566 1
gene 2 4 9 3.01147 0 8 3.01147 1
gene 3 9 8 -5.13115 0 9 -5.13115 1
gene 1 2 11 -5.27177 0 13 -5.27177 1
gene 1 11 8 0.90537 0 14 0.90537 1
gene 1 3 9 0.101382 0 26 0.0506912 1
gene 2 1 9 -1.50884 0 51 -1.50884 1
genomeend 3570

/* Organism #3937 Fitness: 1101 Error: 0 */
genomestart 3937
trait 1 0.1 0 0 0 0 0 0 0 
trait 2 0.432749 0.396741 0.264718 0 0.200919 0 0 0.0126804 
trait 3 0.475 0 0 0 0 0 0 0.0028077 
node 1 2 1 1
node 2 1 1 1
node 3 2 1 1
node 4 2 1 1
node 5 2 1 1
node 6 1 1 1
node 7 2 1 3
node 8 2 0 2
node 9 1 0 0
node 11 1 0 0
gene 3 1 8 -4.04054 0 1 -4.04054 1
gene 1 2 8 -0.140538 0 2 -0.140538 1
gene 1 3 8 -8 0 3 -8 1
gene 2 4 8 5.61937 0 4 5.61937 0
gene 3 5 8 6.84959 0 5 6.84959 1
gene 2 6 8 2.18356 0 6 2.18356 1
gene 1 7 8 4.71566 0 7 4.71566 1
gene 2 4 9 3.01147 0 8 3.01147 1
gene 3 9 8 -5.13115 0 9 -5.13115 1
gene 1 2 11 -5.27177 0 13 -5.27177 1
gene 1 11 8 0.90537 0 14 0.90537 1
gene 1 3 9 0.101382 0 26 0.0506912 1
gene 2 1 9 -1.50884 0 51 -1.50884 1
genomeend 3937

/* Organism #3506 Fitness: 887 Error: 0 */
genomestart 3506
trait 1 0.1 0 0 0 0 0 0 0 
trait 2 0.432749 0.396741 0.264718 0 0.200919 0 0 0.0126804 
trait 3 0.475 0 0 0 0 0 0 0.0028077 
node 1 2 1 1
node 2 1 1 1
node 3 2 1 1
node 4 2 1 1
node 5 2 1 1
node 6 1 1 1
node 7 2 1 3
node 8 2 0 2
node 9 1 0 0
node 11 1 0 0
gene 3 1 8 -4.60116 0 1 -4.60116 1
gene 1 2 8 -0.140538 0 2 -0.140538 1
gene 1 3 8 -8 0 3 -8 1
gene 2 4 8 5.61937 0 4 5.61937 0
gene 3 5 8 6.84959 0 5 6.84959 1
gene 2 6 8 2.18356 0 6 2.18356 1
gene 1 7 8 4.71566 0 7 4.71566 1
gene 2 4 9 3.01147 0 8 3.01147 1
gene 3 9 8 -5.13115 0 9 -5.13115 1
gene 1 2 11 -5.27177 0 13 -5.27177 1
gene 1 11 8 0.90537 0 14 0.90537 1
gene 1 3 9 0.101382 0 26 0.0506912 1
gene 2 1 9 -1.50884 0 51 -1.50884 1
genomeend 3506

/* Organism #4235 Fitness: 813 Error: 0 */
genomestart 4235
trait 1 0.1 0 0 0 0 0 0 0 
trait 2 0.432749 1 1 0 0.200919 0 0 0 
trait 3 0.475 0 0 0 0 0 0 0.0028077 
node 1 2 1 1
node 2 1 1 1
node 3 2 1 1
node 4 2 1 1
node 5 2 1 1
node 6 1 1 1
node 7 2 1 3
node 8 2 0 2
node 9 1 0 0
node 11 1 0 0
gene 3 1 8 -4.80647 0 1 -4.80647 1
gene 1 2 8 0.319033 0 2 0.319033 1
gene 1 3 8 -8 0 3 -8 1
gene 2 4 8 6.06489 0 4 6.06489 0
gene 3 5 8 7.13526 0 5 7.13526 1
gene 2 6 8 2.2104 0 6 2.2104 1
gene 1 7 8 4.24308 0 7 4.24308 1
gene 2 4 9 3.41941 0 8 3.41941 1
gene 3 9 8 -4.99676 0 9 -4.99676 1
gene 1 2 11 -5.13157 0 13 -5.13157 1
gene 1 11 8 1.05642 0 14 1.05642 1
gene 1 3 9 0.604465 0 26 0.566446 1
gene 2 1 9 -1.50884 0 51 -1.50884 1
genomeend 4235

/* Organism #3532 Fitness: 724 Error: 0 */
genomestart 3532
trait 1 0.1 0 0 0 0 0 0 0 
trait 2 0.432749 0.396741 0.264718 0 0.200919 0 0 0.0126804 
trait 3 0.475 0 0 0 0 0 0 0.0028077 
node 1 2 1 1
node 2 1 1 1
node 3 2 1 1
node 4 2 1 1
node 5 2 1 1
node 6 1 1 1
node 7 2 1 3
node 8 2 0 2
node 9 1 0 0
node 11 1 0 0
gene 3 1 8 -4.04054 0 1 -4.04054 1
gene 1 2 8 -0.140538 0 2 -0.140538 1
gene 1 3 8 -8 0 3 -8 1
gene 2 4 8 5.61937 0 4 5.61937 0
gene 3 5 8 6.84959 0 5 6.84959 1
gene 2 6 8 2.18356 0 6 2.18356 1
gene 1 7 8 4.71566 0 7 4.71566 1
gene 2 4 9 3.01147 0 8 3.01147 1
gene 3 9 8 -5.13115 0 9 -5.13115 1
gene 1 2 11 -5.27177 0 13 -5.27177 1
gene 1 11 8 0.10794 0 14 0.10794 1
gene 1 3 9 0.101382 0 26 0.0506912 1
gene 2 1 9 -1.50884 0 51 -1.50884 1
genomeend 3532

/* Organism #3831 Fitness: 724 Error: 0 */
genomestart 3831
trait 1 0.1 0 0 0 0 0 0 0 
trait 2 0.432749 0.396741 0.264718 0 0.200919 0 0 0.0126804 
trait 3 0.475 0 0 0 0 0 0 0.0028077 
node 1 2 1 1
node 2 1 1 1
node 3 2 1 1
node 4 2 1 1
node 5 2 1 1
node 6 1 1 1
node 7 2 1 3
node 8 2 0 2
node 9 1 0 0
node 11 1 0 0
gene 3 1 8 -4.04054 0 1 -4.04054 1
gene 1 2 8 -0.140538 0 2 -0.140538 1
gene 1 3 8 -8 0 3 -8 1
gene 2 4 8 5.61937 0 4 5.61937 0
gene 3 5 8 6.84959 0 5 6.84959 1
gene 2 6 8 2.18356 0 6 2.18356 1
gene 1 7 8 4.71566 0 7 4.71566 1
gene 2 4 9 3.01147 0 8 3.01147 1
gene 3 9 8 -5.13115 0 9 -5.13115 1
gene 1 2 11 -5.27177 0 13 -5.27177 1
gene 1 11 8 0.10794 0 14 0.10794 1
gene 1 3 9 0.101382 0 26 0.0506912 1
gene 2 1 9 -1.50884 0 51 -1.50884 1
genomeend 3831

/* Organism #4260 Fitness: 697 Error: 0 */
genomestart 4260
trait 1 0.1 0 0 0 0 0 0 0 
trait 2 0.432749 0.396741 0.264718 0 0.200919 0 0 0.0126804 
trait 3 0.475 0 0 0 0 0 0 0.0028077 
node 1 2 1 1
node 2 1 1 1
node 3 2 1 1
node 4 2 1 1
node 5 2 1 1
node 6 1 1 1
node 7 2 1 3
node 8 2 0 2
node 9 1 0 0
node 11 1 0 0
gene 3 1 8 -5.42241 0 1 -5.42241 1
gene 1 2 8 1.69774 0 2 1.69774 1
gene 1 3 8 -8 0 3 -8 1
gene 2 4 8 6.5104 0 4 6.5104 0
gene 3 5 8 7.42093 0 5 7.42093 1
gene 2 6 8 2.23724 0 6 2.23724 1
gene 1 7 8 2.82534 0 7 2.82534 1
gene 2 4 9 3.77573 0 8 3.77573 1
gene 3 9 8 -4.86236 0 9 -4.86236 1
gene 1 2 11 -4.99138 0 13 -4.99138 1
gene 1 11 8 1.50956 0 14 1.50956 1
gene 1 3 9 1.10755 0 26 1.0822 1
gene 2 1 9 -1.50884 0 51 -1.50884 1
genomeend 4260

/* Organism #4286 Fitness: 688 Error: 0 */
genomestart 4286
trait 1 0.1 0 0 0 0 0 0 0 
trait 2 0.432749 0.396741 0.264718 0 0.200919 0 0 0.0126804 
trait 3 0.475 0 0 0 0 0 0 0.0028077 
node 1 2 1 1
node 2 1 1 1
node 3 2 1 1
node 4 2 1 1
node 5 2 1 1
node 6 1 1 1
node 7 2 1 3
node 8 2 0 2
node 9 1 0 0
node 11 1 0 0
gene 3 1 8 -5.01179 0 1 -5.01179 1
gene 1 2 8 1.69774 0 2 1.69774 1
gene 1 3 8 -8 0 3 -8 1
gene 2 4 8 7.40143 0 4 7.40143 0
gene 3 5 8 7.99228 0 5 7.99228 1
gene 2 6 8 2.23724 0 6 2.23724 1
gene 1 7 8 2.82534 0 7 2.82534 1
gene 2 4 9 4.48838 0 8 4.48838 1
gene 3 9 8 -4.59357 0 9 -4.59357 1
gene 1 2 11 -4.99138 0 13 -4.99138 1
gene 1 11 8 1.20746 0 14 1.20746 1
gene 1 3 9 1.10755 0 26 1.0822 1
gene 2 1 9 -1.50884 0 51 -1.50884 1
genomeend 4286

/* Organism #3072 Fitness: 668 Error: 0 */
genomestart 3072
trait 1 0.1 0 0 0 0 0 0 0 
trait 2 0.432749 0.396741 0.264718 0 0.200919 0 0 0.0126804 
trait 3 0.475 0 0 0 0 0 0 0.0028077 
node 1 2 1 1
node 2 1 1 1
node 3 2 1 1
node 4 2 1 1
node 5 2 1 1
node 6 1 1 1
node 7 2 1 3
node 8 2 0 2
node 9 1 0 0
node 11 1 0 0
gene 3 1 8 -3.47991 0 1 -3.47991 1
gene 1 2 8 0.743088 0 2 0.743088 1
gene 1 3 8 -8 0 3 -8 1
gene 2 4 8 7.3986 0 4 7.3986 0
gene 3 5 8 7.71738 0 5 7.71738 1
gene 2 6 8 2.02067 0 6 2.02067 1
gene 1 7 8 4.71566 0 7 4.71566 1
gene 2 4 9 3.01147 0 8 3.01147 1
gene 3 9 8 -5.13115 0 9 -5.13115 1
gene 1 2 11 0.0653096 0 13 0.0653096 1
gene 1 11 8 -0.689489 0 14 -0.689489 1
gene 1 3 9 0.939116 0 26 0.939116 1
gene 2 1 9 -1.50884 0 51 -1.50884 1
genomeend 3072

/* Organism #3620 Fitness: 668 Error: 0 */
genomestart 3620
trait 1 0.1 0 0 0 0 0 0 0 
trait 2 0.432749 0.396741 0.264718 0 0.200919 0 0 0.0126804 
trait 3 0.475 0 0 0 0 0 0 0.0028077 
node 1 2 1 1
node 2 1 1 1
node 3 2 1 1
node 4 2 1 1
node 5 2 1 1
node 6 1 1 1
node 7 2 1 3
node 8 2 0 2
node 9 1 0 0
node 11 1 0 0
gene 3 1 8 -3.47991 0 1 -3.47991 1
gene 1 2 8 0.743088 0 2 0.743088 1
gene 1 3 8 -8 0 3 -8 1
gene 2 4 8 7.3986 0 4 7.3986 0
gene 3 5 8 7.71738 0 5 7.71738 1
gene 2 6 8 2.02067 0 6 2.02067 1
gene 1 7 8 4.71566 0 7 4.71566 1
gene 2 4 9 3.01147 0 8 3.01147 1
gene 3 9 8 -5.13115 0 9 -5.13115 1
gene 1 2 11 0.0653096 0 13 0.0653096 1
gene 1 11 8 -0.689489 0 14 -0.689489 1
gene 1 3 9 0.939116 0 26 0.939116 1
gene 2 1 9 -1.50884 0 51 -1.50884 1
genomeend 3620

/* Organism #4215 Fitness: 517 Error: 0 */
genomestart 4215
trait 1 0.1 0 0 0 0 0 0 0 
trait 2 0.432749 0.396741 0.264718 0 0.200919 0 0 0.0126804 
trait 3 0.475 0 0 0 0 0 0 0.0028077 
node 1 2 1 1
node 2 1 1 1
node 3 2 1 1
node 4 2 1 1
node 5 2 1 1
node 6 1 1 1
node 7 2 1 3
node 8 2 0 2
node 9 1 0 0
node 11 1 0 0
gene 3 1 8 -4.60116 0 1 -4.60116 1
gene 1 2 8 -0.140538 0 2 -0.140538 1
gene 1 3 8 -8 0 3 -8 1
gene 2 4 8 5.61937 0 4 5.61937 0
gene 3 5 8 7.42093 0 5 7.42093 1
gene 2 6 8 2.23724 0 6 2.23724 1
gene 1 7 8 4.71566 0 7 4.71566 1
gene 2 4 9 3.77573 0 8 3.77573 1
gene 3 9 8 -4.86236 0 9 -4.86236 1
gene 1 2 11 -4.99138 0 13 -4.99138 1
gene 1 11 8 0.90537 0 14 0.90537 1
gene 1 3 9 0.101382 0 26 0.0506912 1
gene 2 1 9 -1.50884 0 51 -1.50884 1
genomeend 4215

/* Organism #4248 Fitness: 501 Error: 0 */
genomestart 4248
trait 1 0.1 0 0 0 0 0 0 0 
trait 2 0.432749 0.396741 0.264718 0 0.200919 0 0 0.0126804 
trait 3 0.475 0 0 0 0 0 0 0.0028077 
node 1 2 1 1
node 2 1 1 1
node 3 2 1 1
node 4 2 1 1
node 5 2 1 1
node 6 1 1 1
node 7 2 1 3
node 8 2 0 2
node 9 1 0 0
node 11 1 0 0
gene 3 1 8 -5.42241 0 1 -5.42241 1
gene 1 2 8 -0.140538 0 2 -0.140538 1
gene 1 3 8 -8 0 3 -8 1
gene 2 4 8 7.40143 0 4 7.40143 0
gene 3 5 8 6.84959 0 5 6.84959 1
gene 2 6 8 2.18356 0 6 2.18356 1
gene 1 7 8 4.71566 0 7 4.71566 1
gene 2 4 9 3.06309 0 8 3.06309 1
gene 3 9 8 -5.13115 0 9 -5.13115 1
gene 1 2 11 -4.71099 0 13 -4.71099 1
gene 1 11 8 1.50956 0 14 1.50956 1
gene 1 3 9 0.101382 0 26 0.0506912 1
gene 2 1 9 -1.50884 0 51 -1.50884 1
genomeend 4248

/* Organism #4288 Fitness: 474 Error: 0 */
genomestart 4288
trait 1 0.1 0 0 0 0 0 0 0 
trait 2 0.432749 0.396741 0.264718 0 0.200919 0 0 0.0126804 
trait 3 0.475 0 0 0 0 0 0 0.0028077 
node 1 2 1 1
node 2 1 1 1
node 3 2 1 1
node 4 2 1 1
node 5 2 1 1
node 6 1 1 1
node 7 2 1 3
node 8 2 0 2
node 9 1 0 0
node 11 1 0 0
gene 3 1 8 -5.01179 0 1 -5.01179 1
gene 1 2 8 1.69774 0 2 1.69774 1
gene 1 3 8 -8 0 3 -8 1
gene 2 4 8 7.40143 0 4 7.40143 0
gene 3 5 8 7.42093 0 5 7.42093 1
gene 2 6 8 2.23724 0 6 2.23724 1
gene 1 7 8 3.7705 0 7 3.7705 1
gene 2 4 9 3.77573 0 8 3.77573 1
gene 3 9 8 -4.86236 0 9 -4.86236 1
gene 1 2 11 -4.71099 0 13 -4.71099 1
gene 1 11 8 1.20746 0 14 1.20746 1
gene 1 3 9 1.10755 0 26 1.0822 1
gene 2 1 9 -1.50884 0 51 -1.50884 1
genomeend 4288

/* Organism #4303 Fitness: 100001 Error: 0 */
/* ##------$ WINNER 4303 SPECIES #37 $------## */
genomestart 4303
trait 1 0.1 0 0 0 0 0 0 0 
trait 2 0.432749 0.396741 0.264718 0 0.200919 0 0 0.0126804 
trait 3 0.475 0 0 0 0 0 0 0.0028077 
node 1 2 1 1
node 2 1 1 1
node 3 2 1 1
node 4 2 1 1
node 5 2 1 1
node 6 1 1 1
node 7 2 1 3
node 8 2 0 2
node 9 1 0 0
node 11 1 0 0
gene 3 1 8 -5.01179 0 1 -5.01179 1
gene 1 2 8 0.778603 0 2 0.778603 1
gene 1 3 8 -8 0 3 -8 1
gene 2 4 8 6.5104 0 4 6.5104 0
gene 3 5 8 7.42093 0 5 7.42093 1
gene 2 6 8 2.26407 0 6 2.26407 1
gene 1 7 8 3.7705 0 7 3.7705 1
gene 2 4 9 3.77573 0 8 3.77573 1
gene 3 9 8 -4.86236 0 9 -4.86236 1
gene 1 2 11 -4.99138 0 13 -4.99138 1
gene 1 11 8 1.20746 0 14 1.20746 1
gene 1 3 9 1.10755 0 26 1.0822 1
gene 2 1 9 -1.50884 0 51 -1.50884 1
genomeend 4303

/* Species #38 : (Size 6) (AF 0) (Age 1)  */


/* Organism #4166 Fitness: 91 Error: 0 */
genomestart 4166
trait 1 0.1 0 0 0 0 0 0 0 
trait 2 0.2 0 0 0 0 0 0 0 
trait 3 0.3 0 0 0 0 0 0 0 
node 1 2 1 1
node 2 1 1 1
node 3 1 1 1
node 4 3 1 1
node 5 2 1 1
node 6 3 1 1
node 7 3 1 3
node 8 2 0 2
node 9 1 0 0
node 10 1 0 0
gene 3 1 8 1.0551 0 1 1.0551 0
gene 1 2 8 0.171545 0 2 0.171545 1
gene 2 3 8 1.78746 0 3 1.78746 1
gene 2 4 8 2.32028 0 4 2.32028 0
gene 1 5 8 1.13983 0 5 1.13983 0
gene 3 6 8 3.43036 0 6 3.43036 1
gene 1 7 8 -0.22602 0 7 -0.22602 1
gene 2 4 9 0.963454 0 8 0.963454 1
gene 2 9 8 0.246323 0 9 0.246323 1
gene 1 5 10 0.325503 0 10 0.325503 1
gene 1 10 8 0.340606 0 11 0.340606 1
gene 1 7 10 1.13787 0 17 1.13787 1
gene 2 4 10 0.00396741 0 18 0 1
gene 2 2 9 0.826807 0 25 0.826807 1
gene 1 10 9 -0.266594 0 35 -0.266594 1
gene 1 6 10 -0.396649 0 36 0 1
genomeend 4166

/* Organism #3602 Fitness: 87 Error: 0 */
genomestart 3602
trait 1 0.1 0 0 0 0 0 0 0 
trait 2 0.2 0 0 0 0 0 0 0 
trait 3 0.3 0 0 0 0 0 0 0 
node 1 2 1 1
node 2 1 1 1
node 3 1 1 1
node 4 3 1 1
node 5 2 1 1
node 6 3 1 1
node 7 3 1 3
node 8 2 0 2
node 9 1 0 0
node 10 1 0 0
gene 3 1 8 1.0551 0 1 1.0551 0
gene 1 2 8 0.171545 0 2 0.171545 1
gene 2 3 8 1.78746 0 3 1.78746 1
gene 2 4 8 2.32028 0 4 2.32028 0
gene 1 5 8 1.13983 0 5 1.13983 0
gene 3 6 8 3.43036 0 6 3.43036 1
gene 1 7 8 -0.22602 0 7 -0.22602 1
gene 2 4 9 0.963454 0 8 0.963454 1
gene 2 9 8 0.246323 0 9 0.246323 1
gene 1 5 10 0.325503 0 10 0.325503 1
gene 1 10 8 0.340606 0 11 0.340606 1
gene 1 7 10 1.13787 0 17 1.13787 1
gene 2 4 10 0.00396741 0 18 0 1
gene 2 2 9 0.826807 0 25 0.826807 1
gene 1 10 9 -0.266594 0 35 -0.266594 1
genomeend 3602

/* Organism #4096 Fitness: 87 Error: 0 */
genomestart 4096
trait 1 0.1 0 0 0 0 0 0 0 
trait 2 0.2 0 0 0 0 0 0 0 
trait 3 0.3 0 0 0 0 0 0 0 
node 1 2 1 1
node 2 1 1 1
node 3 1 1 1
node 4 3 1 1
node 5 2 1 1
node 6 3 1 1
node 7 3 1 3
node 8 2 0 2
node 9 1 0 0
node 10 1 0 0
gene 3 1 8 1.0551 0 1 1.0551 0
gene 1 2 8 0.171545 0 2 0.171545 1
gene 2 3 8 1.78746 0 3 1.78746 1
gene 2 4 8 2.32028 0 4 2.32028 0
gene 1 5 8 1.13983 0 5 1.13983 0
gene 3 6 8 3.43036 0 6 3.43036 1
gene 1 7 8 -0.22602 0 7 -0.22602 1
gene 2 4 9 0.963454 0 8 0.963454 1
gene 2 9 8 0.246323 0 9 0.246323 1
gene 1 5 10 0.325503 0 10 0.325503 1
gene 1 10 8 0.340606 0 11 0.340606 1
gene 1 7 10 1.13787 0 17 1.13787 1
gene 2 4 10 0.00396741 0 18 0 1
gene 2 2 9 0.826807 0 25 0.826807 1
gene 1 10 9 -0.266594 0 35 -0.266594 1
genomeend 4096

/* Organism #3654 Fitness: 84 Error: 0 */
genomestart 3654
trait 1 0.1 0 0 0 0 0 0 0 
trait 2 0.2 0 0 0 0 0 0 0 
trait 3 0.3 0 0 0 0 0 0 0 
node 1 2 1 1
node 2 1 1 1
node 3 1 1 1
node 4 3 1 1
node 5 2 1 1
node 6 3 1 1
node 7 3 1 3
node 8 2 0 2
node 9 1 0 0
node 10 1 0 0
gene 3 1 8 1.0551 0 1 1.0551 0
gene 1 2 8 0.171545 0 2 0.171545 1
gene 2 3 8 1.78746 0 3 1.78746 1
gene 2 4 8 2.32028 0 4 2.32028 0
gene 1 5 8 1.13983 0 5 1.13983 0
gene 3 6 8 3.43036 0 6 3.43036 1
gene 1 7 8 -0.22602 0 7 -0.22602 1
gene 2 4 9 0.963454 0 8 0.963454 1
gene 2 9 8 0.246323 0 9 0.246323 1
gene 1 5 10 0.325503 0 10 0.325503 1
gene 1 10 8 0.340606 0 11 0.340606 1
gene 1 7 10 1.13787 0 17 1.13787 1
gene 2 2 9 0.826807 0 25 0.826807 1
gene 1 3 9 0.101382 0 26 0 1
gene 1 10 9 -0.266594 0 35 -0.266594 1
genomeend 3654

/* Organism #3750 Fitness: 84 Error: 0 */
genomestart 3750
trait 1 0.1 0 0 0 0 0 0 0 
trait 2 0.2 0 0 0 0 0 0 0 
trait 3 0.3 0 0 0 0 0 0 0 
node 1 2 1 1
node 2 1 1 1
node 3 1 1 1
node 4 3 1 1
node 5 2 1 1
node 6 3 1 1
node 7 3 1 3
node 8 2 0 2
node 9 1 0 0
node 10 1 0 0
gene 3 1 8 1.0551 0 1 1.0551 0
gene 1 2 8 0.171545 0 2 0.171545 1
gene 2 3 8 1.78746 0 3 1.78746 1
gene 2 4 8 2.32028 0 4 2.32028 0
gene 1 5 8 1.13983 0 5 1.13983 0
gene 3 6 8 3.43036 0 6 3.43036 1
gene 1 7 8 -0.22602 0 7 -0.22602 1
gene 2 4 9 0.963454 0 8 0.963454 1
gene 2 9 8 0.246323 0 9 0.246323 1
gene 1 5 10 0.325503 0 10 0.325503 1
gene 1 10 8 0.340606 0 11 0.340606 1
gene 1 7 10 1.13787 0 17 1.13787 1
gene 2 2 9 0.826807 0 25 0.826807 1
gene 1 3 9 0.101382 0 26 0 1
gene 1 10 9 -0.266594 0 35 -0.266594 1
genomeend 3750

/* Organism #2290 Fitness: 76 Error: 0 */
genomestart 2290
trait 1 0.1 0 0 0 0 0 0 0 
trait 2 0.2 0 0 0 0 0 0 0 
trait 3 0.3 0 0 0 0 0 0 0 
node 1 2 1 1
node 2 1 1 1
node 3 1 1 1
node 4 3 1 1
node 5 2 1 1
node 6 3 1 1
node 7 3 1 3
node 8 2 0 2
node 9 1 0 0
node 10 1 0 0
gene 3 1 8 1.0551 0 1 1.0551 0
gene 1 2 8 0.171545 0 2 0.171545 1
gene 2 3 8 1.78746 0 3 1.78746 1
gene 2 4 8 2.32028 0 4 2.32028 0
gene 1 5 8 1.13983 0 5 1.13983 0
gene 3 6 8 3.43036 0 6 3.43036 1
gene 1 7 8 -0.22602 0 7 -0.22602 1
gene 2 4 9 0.963454 0 8 0.963454 1
gene 2 9 8 0.246323 0 9 0.246323 1
gene 1 5 10 0.325503 0 10 0.325503 1
gene 1 10 8 0.340606 0 11 0.340606 1
gene 1 7 10 1.13787 0 17 1.13787 1
gene 2 2 9 0.826807 0 25 0.826807 1
gene 1 10 9 -0.266594 0 35 -0.266594 1
genomeend 2290

/* Species #41 : (Size 9) (AF 0) (Age 1)  */


/* Organism #3237 Fitness: 130 Error: 0 */
genomestart 3237
trait 1 0.1 0 0 0 0 0 0 0 
trait 2 0.2 0 0 0 0 0 0 0 
trait 3 0.3 0 0 0 0 0 0 0 
node 1 2 1 1
node 2 1 1 1
node 3 1 1 1
node 4 3 1 1
node 5 2 1 1
node 6 3 1 1
node 7 3 1 3
node 8 2 0 2
node 9 1 0 0
node 10 1 0 0
node 14 1 0 0
gene 3 1 8 5.84269 0 1 5.84269 1
gene 1 2 8 1.7907 0 2 1.7907 1
gene 2 3 8 7.67792 0 3 7.67792 1
gene 2 4 8 -5.18727 0 4 -5.18727 1
gene 1 5 8 -3.83408 0 5 -3.83408 0
gene 3 6 8 6.30773 0 6 6.30773 1
gene 1 7 8 -2.62241 0 7 -2.62241 1
gene 2 4 9 0.0122684 0 8 0.0122684 1
gene 2 9 8 -2.72191 0 9 -2.72191 1
gene 1 5 10 3.13031 0 10 3.13031 1
gene 1 10 8 3.05874 0 11 3.05874 1
gene 1 7 10 -0.79075 0 17 -0.79075 1
gene 2 9 10 0.309 0 19 0.309 1
gene 2 4 14 0.288156 0 27 0.288156 1
gene 2 14 9 0.585726 0 28 0.585726 1
genomeend 3237

/* Organism #3944 Fitness: 130 Error: 0 */
genomestart 3944
trait 1 0.1 0 0 0 0 0 0 0 
trait 2 0.2 0 0 0 0 0 0 0 
trait 3 0.3 0 0 0 0 0 0 0 
node 1 2 1 1
node 2 1 1 1
node 3 1 1 1
node 4 3 1 1
node 5 2 1 1
node 6 3 1 1
node 7 3 1 3
node 8 2 0 2
node 9 1 0 0
node 10 1 0 0
node 14 1 0 0
gene 3 1 8 5.84269 0 1 5.84269 1
gene 1 2 8 1.7907 0 2 1.7907 1
gene 2 3 8 7.67792 0 3 7.67792 1
gene 2 4 8 -5.18727 0 4 -5.18727 1
gene 1 5 8 -3.83408 0 5 -3.83408 0
gene 3 6 8 6.30773 0 6 6.30773 1
gene 1 7 8 -2.62241 0 7 -2.62241 1
gene 2 4 9 0.0122684 0 8 0.0122684 1
gene 2 9 8 -2.72191 0 9 -2.72191 1
gene 1 5 10 3.13031 0 10 3.13031 1
gene 1 10 8 3.05874 0 11 3.05874 1
gene 1 7 10 -0.79075 0 17 -0.79075 1
gene 2 9 10 0.309 0 19 0.309 1
gene 2 4 14 0.288156 0 27 0.288156 1
gene 2 14 9 0.585726 0 28 0.585726 1
genomeend 3944

/* Organism #4029 Fitness: 130 Error: 0 */
genomestart 4029
trait 1 0.1 0 0 0 0 0 0 0 
trait 2 0.2 0 0 0 0 0 0 0 
trait 3 0.3 0 0 0 0 0 0 0 
node 1 2 1 1
node 2 1 1 1
node 3 1 1 1
node 4 3 1 1
node 5 2 1 1
node 6 3 1 1
node 7 3 1 3
node 8 2 0 2
node 9 1 0 0
node 10 1 0 0
node 14 1 0 0
gene 3 1 8 5.84269 0 1 5.84269 1
gene 1 2 8 1.7907 0 2 1.7907 1
gene 2 3 8 7.67792 0 3 7.67792 1
gene 2 4 8 -5.18727 0 4 -5.18727 1
gene 1 5 8 -3.83408 0 5 -3.83408 0
gene 3 6 8 6.30773 0 6 6.30773 1
gene 1 7 8 -2.62241 0 7 -2.62241 1
gene 2 4 9 0.0122684 0 8 0.0122684 1
gene 2 9 8 -2.72191 0 9 -2.72191 1
gene 1 5 10 3.13031 0 10 3.13031 1
gene 1 10 8 3.05874 0 11 3.05874 1
gene 1 7 10 -0.79075 0 17 -0.79075 1
gene 2 9 10 0.309 0 19 0.309 1
gene 2 4 14 0.288156 0 27 0.288156 1
gene 2 14 9 0.585726 0 28 0.585726 1
genomeend 4029

/* Organism #4068 Fitness: 130 Error: 0 */
genomestart 4068
trait 1 0.1 0 0 0 0 0 0 0 
trait 2 0.2 0 0 0 0 0 0 0 
trait 3 0.3 0 0 0 0 0 0 0 
node 1 2 1 1
node 2 1 1 1
node 3 1 1 1
node 4 3 1 1
node 5 2 1 1
node 6 3 1 1
node 7 3 1 3
node 8 2 0 2
node 9 1 0 0
node 10 1 0 0
node 14 1 0 0
gene 3 1 8 5.84269 0 1 5.84269 1
gene 1 2 8 1.7907 0 2 1.7907 1
gene 2 3 8 7.67792 0 3 7.67792 1
gene 2 4 8 -5.18727 0 4 -5.18727 1
gene 1 5 8 -3.83408 0 5 -3.83408 0
gene 3 6 8 6.30773 0 6 6.30773 1
gene 1 7 8 -2.62241 0 7 -2.62241 1
gene 2 4 9 0.0122684 0 8 0.0122684 1
gene 2 9 8 -2.72191 0 9 -2.72191 1
gene 1 5 10 3.13031 0 10 3.13031 1
gene 1 10 8 3.05874 0 11 3.05874 1
gene 1 7 10 -0.79075 0 17 -0.79075 1
gene 2 9 10 0.309 0 19 0.309 1
gene 2 4 14 0.288156 0 27 0.288156 1
gene 2 14 9 0.585726 0 28 0.585726 1
genomeend 4068

/* Organism #3419 Fitness: 105 Error: 0 */
genomestart 3419
trait 1 0.1 0 0 0 0 0 0 0 
trait 2 0.2 0 0 0 0 0 0 0 
trait 3 0.3 0 0 0 0 0 0 0 
node 1 2 1 1
node 2 1 1 1
node 3 1 1 1
