genomestart 1
trait 1 0.1 0 0 0 0 0 0 0
trait 2 0.2 0 0 0 0 0 0 0
trait 3 0.3 0 0 0 0 0 0 0
node 1 0 1 1
node 2 0 1 1
node 3 0 1 1
node 4 0 1 1
node 5 0 1 1
node 6 0 1 1
node 7 0 1 1
node 8 0 1 1
node 9 0 1 1
node 10 0 1 1
node 11 0 1 1
node 12 0 1 1
node 13 0 1 1
node 14 0 1 1
node 15 0 1 1
node 16 0 1 3
node 51 0 0 2
node 52 0 0 2
node 53 0 0 2
gene 1 1 51 0.0 0 1 0 1
gene 2 1 52 0.0 0 2 0 1
gene 3 1 53 0.0 0 1 0 1
gene 1 2 51 0.0 0 1 0 1
gene 2 2 52 0.0 0 2 0 1
gene 3 2 53 0.0 0 1 0 1
gene 1 3 51 0.0 0 1 0 1
gene 2 3 52 0.0 0 2 0 1
gene 3 3 53 0.0 0 1 0 1
gene 1 4 51 0.0 0 1 0 1
gene 2 4 52 0.0 0 2 0 1
gene 3 4 53 0.0 0 1 0 1
gene 1 5 51 0.0 0 1 0 1
gene 2 5 52 0.0 0 2 0 1
gene 3 5 53 0.0 0 1 0 1
gene 1 6 51 0.0 0 1 0 1
gene 2 6 52 0.0 0 2 0 1
gene 3 6 53 0.0 0 1 0 1
gene 1 7 51 0.0 0 1 0 1
gene 2 7 52 0.0 0 2 0 1
gene 3 7 53 0.0 0 1 0 1
gene 1 8 51 0.0 0 1 0 1
gene 2 8 52 0.0 0 2 0 1
gene 3 8 53 0.0 0 1 0 1
gene 1 9 51 0.0 0 1 0 1
gene 2 9 52 0.0 0 2 0 1
gene 3 9 53 0.0 0 1 0 1
gene 1 10 51 0.0 0 1 0 1
gene 2 10 52 0.0 0 2 0 1
gene 3 10 53 0.0 0 1 0 1
gene 1 11 51 0.0 0 1 0 1
gene 2 11 52 0.0 0 2 0 1
gene 3 11 53 0.0 0 1 0 1
gene 1 12 51 0.0 0 1 0 1
gene 2 12 52 0.0 0 2 0 1
gene 3 12 53 0.0 0 1 0 1
gene 1 13 51 0.0 0 1 0 1
gene 2 13 52 0.0 0 2 0 1
gene 3 13 53 0.0 0 1 0 1
gene 1 14 51 0.0 0 1 0 1
gene 2 14 52 0.0 0 2 0 1
gene 3 14 53 0.0 0 1 0 1
gene 1 15 51 0.0 0 1 0 1
gene 2 15 52 0.0 0 2 0 1
gene 3 15 53 0.0 0 1 0 1
gene 1 16 51 0.0 0 1 0 1
gene 2 16 52 0.0 0 2 0 1
gene 3 16 53 0.0 0 1 0 1
genomeend 1
Average Genes